function [Y,Xf,Af] = ANN_inverse5000(X,~,~)
%MYNEURALNETWORKFUNCTION neural network simulation function.
%
% Generated by Neural Network Toolbox function genFunction, 27-Feb-2017 21:14:56.
%
% [Y] = myNeuralNetworkFunction(X,~,~) takes these arguments:
%
%   X = 1xTS cell, 1 inputs over TS timesteps
%   Each X{1,ts} = 39xQ matrix, input #1 at timestep ts.
%
% and returns:
%   Y = 1xTS cell of 1 outputs over TS timesteps.
%   Each Y{1,ts} = 14xQ matrix, output #1 at timestep ts.
%
% where Q is number of samples (or series) and TS is the number of timesteps.

%#ok<*RPMT0>

% input examples = 5000
% hidden layer = [100]

% ===== NEURAL NETWORK CONSTANTS =====

% Input 1
x1_step1.xoffset = [44.4300019457206;-18.5447762462861;-9.2060616120449;-28.3703549556165;-17.8184237394979;-18.1470591471813;-22.209311698354;-20.5018705204686;-24.446376089192;-22.8429085108797;-15.8322481978903;-16.0788401772034;-14.5651840420228;-11.5630266305608;-9.65551945073195;-9.45380301847614;-18.9001983421939;-16.3847718620286;-16.5566402148846;-15.2506978239395;-15.3728180393942;-20.123700668868;-16.1356814397139;-16.9543342309861;-13.8789840132214;-14.0891820431821;-19.0504859071775;-14.0063710180486;-16.0026451366185;-19.7399451952026;-26.048230207147;-20.8910093547505;-22.7178979706992;-22.9471310064468;-32.5304323578729;-24.57465609912;-27.0655808662565;-20.1985748412145;-20.0782860621091];
x1_step1.gain = [0.0563400551579689;0.0611143199714215;0.0583542942419025;0.0397598404001965;0.0532200829814968;0.0457651313314218;0.0483617051106432;0.0523232552137387;0.0490946863152188;0.047703730521225;0.0615747431806753;0.0657804852022999;0.0750746814583247;0.0755582515696203;0.0878680349636047;0.0783388465341655;0.0576568545000091;0.0668811833930649;0.0624866470957116;0.0589566054180531;0.0631181621533625;0.0582874106395894;0.0609884983840579;0.0584834169347384;0.0743523958726203;0.0753890198298581;0.0592917933910819;0.0721288469865324;0.0620429477118972;0.0516694198936786;0.0413741953861053;0.0470872427802717;0.038177556327864;0.0393005118865484;0.0349440147390499;0.0372610554074502;0.0391580874612492;0.0434964026998927;0.0470718163518795];
x1_step1.ymin = -1;

% Layer 1
b1 = [-1.5905774318391483479;-1.8324780842169876571;2.0492490958451625715;-1.7044945777174647095;-1.537316092673520096;2.0389619962101428463;1.3647045967526418853;-1.3914576463054706412;-1.0722632149600979101;-1.7568100565145166048;1.5679321071766230133;-1.005231830828212658;-0.96979491919193772098;1.501802509817916409;-1.3282645143814220123;1.2861522666852702734;1.3393479710304767583;-1.1486959036182471383;-1.0964299857908610392;-0.80701125346045676778;-0.718460810288960805;0.84623525305697555599;-1.0278218785085833087;-0.9950422751643273056;-0.99914326643283646323;-1.0681895515211516923;-1.1080722666883375815;0.52972571427374981479;-0.33878511318340354119;0.44630758219812699528;-0.40792868350107341913;0.25420409380310754477;0.39790196939391797581;0.65782553921941211428;0.24536053357805784336;-0.36570953500670039249;-0.069806892373871401447;0.15823683271507824055;-0.22517325136121063567;0.11794116569689411245;0.029386010988265140464;0.026959291595383273743;-0.30330800313397049406;-0.19222481936165386474;0.13602494267952280893;-0.040770796164242104065;0.11835939018400715161;-0.29171989745532661553;0.00083279768351770394608;0.13765466272375831425;0.031970118050975195045;-0.018038235131911876941;-0.040403071969913391392;0.0551670924433959875;-0.17179596326936905082;-0.17332311674755751518;0.12693898941276851589;-0.28969714369986576674;0.210033089524539196;-0.39263596284047813656;0.22899376777677554751;-0.27946393586865875269;0.24852234322321994919;0.081494028590240102927;0.19428960889932517242;0.66804670724978165719;0.28484118579157396978;-0.200226518277057286;-0.37649617204866780984;-0.2344242549994180469;0.87907205013173694841;-0.49607792142169404581;0.16450865463406275091;-1.103976648322350762;1.1751266306619148061;-0.85574701372240280506;-0.68782477144969211835;-0.88917838823118156011;0.94689908157319002679;-0.91423235044337525235;-0.96161707304509225214;0.80679209934380968772;1.0330384404963843803;0.7101335876067502717;1.1081746365152451705;-1.254757480279174553;1.623372944439438248;0.92011997906077769294;-1.397287093245625833;1.1191260301619274653;-1.2532323663569098215;-0.88137298451186585346;1.0575150999872389157;1.3992601454450117604;1.8244074887228607373;-1.3607435385586648113;1.5012882648551981735;-1.7710586797977205809;-2.1155952884525706104;-2.0846675526188778171];
IW1_1 = [0.027399071633749993993 -0.68647484871831765396 0.18928174030753261436 -0.22806735768881322701 -0.079003591727990429838 -0.40870695304764170785 0.06213366362782519331 -0.089342483169565237167 -0.234850040987367642 0.44805958020561731381 0.059360622562686218839 0.32663122694499840959 -0.21575017261977802452 -0.39007318919765110454 0.13155923820499493271 -0.039056320843823322253 -0.027541392996126252274 -0.0023399778678781894825 -0.35473293096010871661 -0.049552168687484382525 -0.14633028035407497081 0.41610412630049914418 -0.50649013545304932826 -0.19845607737896764355 -0.089583801632437592977 0.15714937087934213733 -0.21524862158998872563 0.10614196752228016729 0.098181934305401563634 -0.0036767134951668396792 0.047900937886596786641 0.36253053309843147334 -0.054167597710587295223 0.13483528110585130122 -0.14821649588638066697 0.010468473442647481877 0.29585450993662465446 0.20936135862455981793 -0.042800935589762709177;-0.025254773178431631775 0.15055720100709085729 -0.21612895023978134779 0.51989408437295103749 -0.18687053594421459968 0.28112551928438833659 -0.048054377179572491108 0.3031375415535645379 -0.55063173311045388036 0.22273908105617351572 0.12084803818991474156 0.62695241728758699384 -0.26672082117257150946 0.19815167615935341816 0.030324185822166799947 0.39638258651492347395 -0.25591348627449067576 0.036857920380863419541 -0.25894492727902251872 0.23494822623769184844 0.1824827329069311499 0.070336659848591456812 -0.085536913545829290628 0.065919656980795354739 -0.39463646141651786969 0.0013179224032896699054 0.31305599645343967774 -0.0083371208989941863327 -0.30631618016371398028 -0.21044169243122939905 -0.0034853973763859999457 0.22919286330384591732 -0.27407042093232880653 0.025066565724610009869 -0.10195957022648083345 -0.31390892729714792164 -0.14501423475353419912 0.18409763034315240748 0.45856366844241247538;-0.45746804160066961709 -0.45904610842706439211 0.61562135332161238566 -0.93796869551265005249 -0.18451083899715847725 0.67765467119545486074 0.23765652788409283303 0.46971556304185890784 0.26271770014863243814 -0.75064941396967732601 -0.091962146309564896107 -0.059240053654950719508 0.30835353962383171833 0.59178473457874691821 0.55659584205471235308 -0.14961729145812788233 -0.058624286320026447461 -0.071384197881101826844 -0.4353186865401851291 -0.30289801212211908688 -0.2674419670602896093 -0.237887158002257737 0.49818795535315829603 -0.11660631534516363583 -0.092419489795406262189 -0.17958529805804920865 -0.065681082517843686341 -0.34962865127724107595 -0.081927612640550345757 0.19353701779157050922 0.44808182243493388519 -0.021608992426510067325 -0.029485067214452591322 -0.060366744456863033474 0.1121783291431586449 -0.1796596880322149925 0.39148964105655253976 0.14694565334930514977 -0.018857466557399109319;0.23368025804932299194 0.39426717567037022905 -0.19323520789872575265 -0.67157792020827900004 0.17850851221507907374 -0.6239381823647195402 -0.17579615154349773065 -0.17984115082103097061 -0.45785189777737372863 -0.22957179734514990277 -0.14866496745495333398 0.22554830677053269716 -0.50534419987594203505 -0.10204649259301207254 -0.46136044204613851916 -0.030408790571924790291 -0.27301129289644981979 -0.59217337516454715551 0.064081488043830070467 0.13216948559664290497 -0.052440846070219114539 0.019319190231156677107 -0.17014242898503897927 -0.24475624216578634185 0.02178422737092817682 -0.0087780242096755223269 -0.32473692347314636608 0.014015589375631930247 -0.047372806618866961093 -0.27345160469176776896 0.36440405995422975316 0.012032743800819374613 0.2379049352854431254 -0.057691676844230141419 -0.099084408657124950492 -0.1669861668067864624 0.58829644153714411026 0.02176701322582225151 0.3422514259440034845;0.46202346130489324594 -0.17690860850309450547 -0.50818573254395493777 -0.44162049151708160366 0.21571802234428708034 -0.19355967563237772011 -0.059077580542295338173 -0.12459407328316494945 0.013965412774674886703 -0.40335169722173336293 0.023834154917686256603 0.026960568955988046397 -0.22550954539728168546 -0.4148753173746125289 -0.0093532148261099984365 0.010852060677040767378 -0.011200853536512997422 0.089595689688643884163 -0.17825303739387893254 -0.33549423588078475245 0.096406182052295522067 -0.20494987082468632544 -0.21455572504720410443 0.20262607123643644469 -0.19306289075944266243 -0.082023842505042979245 0.2179066782426525295 0.030918874284926470275 -0.38727829082252729354 -0.060728459745199317443 -0.147371789352902266 0.29995812703180307901 0.24126703746165212294 0.13857312305440494526 0.080420245961749459163 0.16015341949034411773 -0.12957245683700979733 0.085793336862193786407 0.51509667038139528294;-0.45010892041631317406 0.1922740071145034868 0.11030481607650452491 0.079928924893293465392 0.217163658940581622 0.20257913918228159789 0.45214336354875928059 -0.1080971683855494192 0.19101173122857598163 0.21177835148167686863 0.11565198752893086909 0.090212405592029046297 0.28615912727619158273 0.45996852845509261787 -0.00078891325419039662337 -0.27180874986305564311 -0.17733904606964254191 -0.16322752949539154343 -0.20592166583164184246 0.63587649824276903932 -0.15563823119298236808 0.1320413090115490351 0.098620508648856158862 0.12346970231345023861 -0.36722070343502055678 -0.14879244808998257077 -0.049209877804846813287 -0.33003703966717384821 -0.23728957138609368949 0.42718864041484877481 -0.13469469055940760938 0.38938305048912935646 -0.1403932945996209658 0.28833377864023146397 -0.10502766450889407246 0.092148360286868985503 -0.21894722237968164413 0.23765153429015836717 0.22622156237303264747;0.033572222926094456852 -0.55173342524738810955 -0.063825907699778791637 0.017811265129292885162 -0.10771431550921030385 0.22284599086624054531 0.28157721181699502111 -0.051278563891039782852 -0.11367936240234852163 0.21067557224298000262 0.27362647276069762547 -0.40463758127092119832 0.0024063646138453749501 -0.3303700611382027752 -0.18618673651126288471 0.081655013652545460623 0.14898688198088122503 0.08493233843089098567 -0.071200224186805396998 0.14934437850096626832 -0.040755176118904043459 0.11529967296518704722 0.21418845664692615083 -0.062141932269284494428 0.41837501817086691913 -0.070212607260768916673 0.22612279082942093877 -0.029644913726293166401 0.23292844679365889982 -0.11966989019650253745 0.26483437737828346981 -0.086805313492780852846 -0.044920550083244567552 -0.19267385835501540936 0.011034618561432937844 -0.23812351511249546521 0.0080553023957280270317 -0.48152221900593999981 -0.067896196353361720766;-0.17448056045214097032 -0.098562485737856433965 -0.04626054441121296712 -0.082192706609990520694 -0.10083805653410232717 -0.037492596101223157889 0.097576577507043710247 -0.35675888238634145821 0.055776908318633092176 0.026692554137102114664 -0.49240020617418933657 -0.090296168915510302555 0.27830045734767594467 0.073123097227610067694 0.18321255868629854335 -0.1062435740830740688 0.3222538504258746217 -0.055209815619945340481 0.031373510964665757283 0.050150751720974953707 0.011220222359774878473 -0.2203774256117992103 0.21790808905576686261 0.34239920790737377043 0.183375248167768512 0.0067675238738672260919 0.22926107796675671002 -0.07317192560763503828 -0.26406576506168127905 -0.073967124352637220186 -0.060422833499113197397 0.087402307706998222381 0.061125894431550642505 0.23381405495777776715 0.14426068608430706042 -0.044277203655240821023 -0.35597621422381703349 -0.096189852518125271152 0.12933838610414585824;-0.16259445006092987374 0.5753641865403567035 0.44093780945683508365 0.050820246600217611199 0.0084965506296752271731 0.35566004210494828186 -0.23127369520656476665 0.13380336775994586263 -0.045639980852635597675 0.0160114273367861909 -0.14531369342305841541 0.2023584948521866822 -0.38346711767375146751 0.58920512260992541353 -0.22328617288197893931 0.0025001579546121768804 0.39389692373941770365 0.46248652280208546461 -0.31878577662332835407 0.2499201144794062357 0.0036853386383733505172 0.33644414669514027816 0.0020277029543976938381 -0.26223524483465882051 0.040638565870501658361 0.19057338914098298499 -0.32572127000808120956 0.26326971832432960463 0.32773422405632857135 0.093644813775978441583 -0.50687306144465726909 0.24337231901821501645 -0.25252903713774416117 0.26815739286836193234 -0.24986974485366100773 0.048219344876683237211 0.27761751942743245758 -0.014242701982566935773 0.31707182656270588295;0.77627482755110444046 0.4587476386871520706 0.10562761429194501839 -0.14659347115180215715 -0.2296129028831801755 0.31690259680155680178 0.49440975935837716548 -0.093288056564162238904 -0.34709192570634583852 -0.25144423030294260624 0.034188632383743616794 0.36056414081768112245 0.21768733625964270528 0.45757042282434662317 0.44719528006573611156 0.19709818658699709837 0.31543049389032518093 0.33251907569680483334 -0.15964333239566652622 -0.21891333910599067303 0.21630213900082881362 0.10119368280003868121 -0.22512978703922278956 -0.13249893551783237244 -0.067196042135195255263 0.22298782421051499547 0.085318296434486032287 -0.10754859018965737261 -0.14097598958781853984 0.040202850857596401923 -0.21790977029235347739 0.16772252910696505701 -0.09409349862233684636 -0.1162999413040389507 0.43984532040328516711 -0.30017147579679553937 -0.31867415717015906695 0.092089032145771632099 -0.26383260108046902026;-0.1727395701162382502 -0.32142129808250841094 -0.072824419555636454859 0.34563803614915600271 0.5698759253666896285 0.40800347898318994888 0.13417207084106799742 0.024454785849730206054 0.37178025078954579641 -0.26068864184695395014 -0.031018154000775219337 -0.15385516300455703842 -0.11916726235860797267 -0.061380353636801499029 0.48290875251085835229 0.18069812985953442874 -0.39576412782814068825 -0.50182417607025631145 -0.19881684315478845293 0.1076937904935230117 -0.082549821188852845477 -0.3714006037711333752 -0.26872710182298725767 -0.30484687090117512653 0.12465737310846500274 0.23053200607151722035 -0.09922793219610476223 -0.20924694569540897016 -0.25179660838421069613 0.017839798661985043632 0.58615504577977195488 0.30156990019765944622 0.029179576397023745948 0.15145118514152200451 0.25768789070256425955 0.028097331912704914814 0.01420368714779471353 0.14279515368792394803 -0.12200089303227704129;-0.049950989160517295096 -0.2521024262683257966 0.0025018043826433369881 0.085843044664005913047 0.38731002660226404588 -0.14557451688549030711 0.28341377808650142223 0.18516921104214159599 -0.08763262617419351197 0.090468265458223215414 0.38023144493757926599 0.014306232621303358044 0.064029017195468745927 0.13200183140909785284 -0.035210660668344530289 0.051385478909977480577 -0.073499300355867505652 -0.00064073087898857544742 -0.10929889527817325534 -0.05287355220613584178 0.26939259817894400939 0.026455391679854153852 0.010716457994402142639 0.08162331379092963024 0.098109959809867891556 -0.090734185341796128044 -0.2089892664626260832 -0.26302865521863882936 0.056353062387405387923 -0.074642767223722678027 -0.1160412596850512873 -0.16208441890646771433 -0.049086079505369070719 -0.15621987202483769708 0.11381830264395499663 -0.13548261628060404016 -0.15074111079452853779 -0.039104310536889244632 0.062756421019174515874;0.095397048949968282772 -0.45384206711860031191 -0.049055522501889853304 1.3613150169813177381 0.013721101961417972448 0.11412002866800806389 -0.52714301853957523658 -0.061961691539890464964 0.19904370436451601645 -0.27548673850809018981 -0.16241988131616116875 0.18975752027104789144 -0.27182937154818609393 0.10810002655606641697 -0.1650269141914120774 -0.26207932058016086829 -0.63548394490019710634 0.071853054576632574557 0.0017351199454705007463 0.2676768790818233601 -0.03247842073901376081 0.12271907796160433368 0.27374121435133869085 0.33694670156134859385 -0.096679669270213569598 -0.01089471297456591492 0.10806827104482361057 -0.038485997423522752547 0.1132497088894726528 0.11815944573327318012 -0.29634368424363072281 -0.16089486403467787023 -0.25490946349339299593 0.040532511490786377051 -0.081158369742621624954 -0.026079012287982556578 -0.34509090062963126977 0.14925660361292192313 0.0075956429650589109281;0.10566545633856139208 -0.19092829582211420791 -0.53543973174531700465 0.23436712151005187343 -0.040386593014750948871 0.11318377889453752616 -0.34816406447871595109 0.30357431544431262571 0.17202727354035607377 0.097527769220951188167 0.081312508894318596964 -0.016800941085208700998 -0.04683978323751639139 -0.22611166770118124036 0.30408458446124869701 0.26135627827801843903 0.22596696311211600383 -0.26158402432222471745 0.4340116986388901088 0.095312936060923822423 0.15228790761968372114 0.19538291376705740898 -0.011517683655181930324 -0.14837200674643361009 -0.60795619498077768661 -0.38936158435043299875 0.81982088251556295422 0.21886368806397521469 -0.15954103693431426203 0.082439438917028859399 -0.17520649073409164109 -0.45936743235648963557 -0.19640489456011139824 -0.23322216073498996947 0.19254821972930577512 0.13982534294966439403 0.036651655944880956461 0.25668521029925045474 0.035000410783636623502;0.23918584330140368888 -0.07336586442057627111 -0.05092967765615843273 0.016026480720634596333 0.019818116747763674101 -0.16434786075153381968 0.24278743163759855528 -0.062279519635806294964 -0.0034990889147167233975 0.13243161330359029537 0.28180247625536536393 -0.025986170458302884634 -0.17943536750570437954 0.047227416012820551405 -0.048463191249762199719 0.013924648975906436799 -0.30295660568210519559 -0.18980928772844568586 0.013425971041976434567 -0.16114767480729344507 0.058654722332626495207 0.038861042214867851097 0.031949948962616020465 -0.32296335499395489865 -0.024788473655319380462 -0.0093052504123320375906 0.052334682496821570419 0.041289807471041085896 -0.11975391547460692565 0.099095501755465442706 -0.21212728409698902721 0.19005298970602715891 0.38601477306646964083 -0.0057494513873839608875 0.095010079834977806401 -0.011713770179083194539 0.18893156606779412665 0.20434543926090445454 -0.048279797842444995004;-0.2440475219334869994 0.30041988832421173683 0.011832673756161239675 0.11129811076681903059 0.1536669045651944121 0.029044049670700060328 0.046045079921663706335 -0.14571133897358790055 -0.11973701987271900826 -0.11930621620256492976 -0.077412161504688090097 0.095893985883305610241 -0.12145133006562434941 -0.027092318221377545417 -0.054831090569840285065 0.0005052362778581176439 -0.037541366797858702342 0.17608874056159240507 0.043406416351748293436 0.054500241293134306375 0.20871159727239232962 -0.26322435036114483209 -0.10405179103599589141 -0.12676723566622921657 0.062597475103600613844 0.041480335255445116571 0.15277049122729061126 0.11037863815253790012 0.22273690772087184619 0.0083605484835327769505 0.26408057539503865252 -0.072032466275873091588 -0.08570619226950647318 -0.17983408658026187044 0.10488776302495761428 -0.06094843301450953571 0.31082785633776383039 -0.11670197564563394854 0.098971885829305161764;0.10981262987727152813 0.40268193943916208433 -0.42752459488491711959 0.0064777300511624242435 -0.01126491961231817357 0.24472585640433200393 -0.21503430588722238781 -0.12049615454521517277 -0.31354272997451465566 0.3966973166175885579 -0.25810355453615474453 0.00083592353299748178852 -0.089225242959195094627 -0.43816783287598837227 -0.10778666484669893744 -0.18205176162797481743 0.2267970388378525437 0.15821176967654482226 0.05667364834817781305 -0.057369367434407091133 -0.033293965443055614783 -0.066151992721878355441 -0.25235928721952605169 0.073999537357908692914 0.081775054801521446235 -0.26131623006919391106 -0.071298043561854179684 0.10233415671840181971 -0.15376174551022872561 -0.0045455811097520702063 -0.24908011534934726416 0.3003032163755427475 0.37254904553171191983 0.038501179999249665609 0.16529921032659128377 0.029196122558847271977 -0.01006632441460745056 -0.11366796410540440376 0.20648066524130348487;0.26773511669702809712 0.27002013245156308852 -0.14100388754081011333 0.19434196233787279229 -0.1973224690656206759 -0.027168184713452819129 -0.038142847836634893866 -0.043641532915830741346 -0.28085655301520229266 -0.22347379293054012162 0.011871974789066895573 0.036537973671837795098 0.35472627852775884261 -0.18500119739533177343 0.0051801551721917075966 -0.13976958682424484026 -0.21031369541552083491 -0.024516060066957175156 0.32152615680964463651 -0.22316120945717787816 0.0093289953817374364486 0.0080039196585081108515 0.36678016064366131266 0.43379647461887299587 -0.25612832291825987641 -0.098406157214124573285 0.25282607318492211768 -0.018021354428741358233 -0.11532012588892941174 0.10590048969552412483 -0.23841943294704376344 -0.48646935073797520355 0.17858839121054154164 -0.30399510411107311114 -0.063201256926033302919 -0.18889210360904784558 -0.24830901919053283144 -0.15948432884214697181 0.0089585642260107539725;-0.18746214964415144899 -0.36678996272178443494 -0.5014253008918232446 -0.67522506395966874759 -0.39912443741914255257 0.34891798421488112725 0.089070640116428234645 0.49073748548342616127 0.068186387608204807043 0.31738319151902466553 -0.27642394951484855481 0.31051365303320621614 0.25454165114967292061 -0.29102265528142662321 -0.10597679265865415921 0.070640294878526077582 0.40483895746360892831 -0.15810861630396708111 -0.45055436616139554751 -0.10481394229547680297 -0.27881575670734043415 0.38246958930392316311 -0.26488694516790167732 0.097042307990791235039 -0.14479422476625219973 -0.051262398308649079204 0.047309667297320896762 0.19639412307229883736 -0.14700345408838391692 -0.49182909783790279556 -0.10985321519957275127 0.060066529213716031432 -0.052723849369685472921 -0.048238335272232306383 -0.36751337607003409236 0.0067742863272343689651 0.046308207157701793133 0.26040862013010368514 0.036519138447016069593;0.17572167971540691989 -0.16910205009406717447 -0.051160207789615268215 -0.72960363838548136783 -0.29637686470965379781 -0.56022486844286611962 0.28219349168025542607 -0.064458276630845384725 0.52525920385908420052 0.058222147553945363674 0.11696028412336549607 0.17842252607900888073 -0.14763303805297595117 0.57300138639310493893 0.36171128438777888636 0.066231374477533813683 0.24083367158782903461 0.056398689814951663557 -0.070107340926073458132 0.22336330901811340954 -0.34396186647632759348 -0.0029326299448636898581 -0.20419591916952820054 0.39538905532119111852 -0.29290562939223963035 0.096718017049845547706 -0.25806042675013080023 -0.079081583144565509302 0.16364393953371927926 -0.14423754282029774276 -0.29427799743308241665 -0.071349049611451303976 -0.13948512132601831315 0.26493303134054774217 -0.029899681393396340678 0.060535494299117316441 -0.12218867217970061367 -0.23579086182272235295 0.039810318241466038924;0.4262388469474928665 -0.61457221864883593287 -0.16748347807257027431 0.10430999701335171015 -0.056002198436193688369 -0.30788777845674447642 0.21105239467460840119 -0.2710501873023187791 -0.046393314791166040401 -0.34824064303050217273 -0.0053174889312423822413 -0.16997819305130304479 0.33652250645939829621 -0.13700531574001068025 0.041014437795988512026 -0.45495419967860506461 0.1148938110271603974 0.23525696931895834219 0.31482210200958782309 0.37009502847529379688 -0.069029722052313752245 0.15130707914374935674 -0.096974340818563820044 0.2647893287119518213 -0.13710786361581470127 0.35021599631639049877 -0.0061013603007816809287 0.23501322421322032308 0.17202239484953033011 -0.10737670509682049891 0.014639791339687721616 -0.095440561218912645103 -0.31045106411016692993 0.041244983728232320619 0.0125729699995392602 -0.094085840134685044811 0.13050739796823063177 0.15429446637762270211 0.13499333557563295005;-0.19704130481112638873 0.65483320952570278628 0.56463855296996201538 0.06081821305371486186 0.15759266618540074267 0.19264731448671762459 -0.3350736696900583067 -0.088029344784537152946 -0.22843483360765559631 0.053813806265219546465 0.068147793208196097425 -0.15797872015579686455 0.042903023065390108459 0.16099585131591440113 -0.23199567843871998774 0.0067656426005455808093 -0.1288100885890346714 -0.011630188754471635845 0.11557527849019906541 0.077515910860613795874 0.025328542903906306472 0.023521868151955217102 0.08011128862520507099 0.016505556424219931105 -0.15773201658004659675 -0.14325562852876766451 0.16927847801986925513 0.19872616626022901465 -0.12548999450460882055 0.20589488323306492923 -0.010806485904265014653 -0.1417484909849204 0.033777505353412520805 0.034696918830159725888 -0.0062251761679894962453 -0.15777235279093854148 0.037227742556858137157 0.011937927697171767452 -0.15238214036400996032;0.17507936254877803917 0.11888988384226420458 0.33676496101387654036 0.45816845216379264993 -0.079275837875279725475 0.018333787324389245327 -0.47774182010675642074 -0.17172796812843540981 -0.10490763075019976514 -0.25998463036595004239 -0.48190839979962740713 0.16699999904944179407 -0.010260560144374958336 0.14609298221207220325 -0.0029030069110855434567 -0.4237649565033457244 -0.3493539059602935315 -0.2558640391722692975 0.21082393765886534021 0.34299467835446467712 0.19296000417228525992 0.044208132014693896084 0.061384407316601420634 0.4703849993645109473 -0.057334454356541414421 -0.017601930856757277977 -0.13072854865397681712 0.07088352861125724047 0.10760585163959998645 0.032873068292833623749 0.086325308321089547214 -0.27591224290346511028 -0.2913759561110965679 -0.11436758523221114692 -0.11130836619878389793 -0.040801152803080380227 -0.19024295913458907914 -0.04186621956320245308 -0.016265618643418685435;0.32767825111650983327 0.37608216742458699944 -0.3913884182696618641 0.10473780583067585082 -0.25617574851918623047 0.1436273020524448385 -0.031214942726774344561 -0.15030473975535554865 -0.27356530203350104546 -0.17672880314980887739 0.033350989569431686854 0.12044500276027389485 -0.043861438997274494744 0.17880261504448721754 0.37544036448778933535 0.27322088176722980624 -0.73252808220738163669 0.1504410181925863732 0.48127965121534116433 0.3052110076180529763 0.19501737911479086196 -0.041906260093008990131 0.046399991782639121718 -0.023606674490968468372 0.29514840141324816258 0.035678808853265582546 0.13459952220901516551 -0.13213102260090411888 -0.68166399822890944016 0.17884562955037444643 -0.1119272511011249055 0.17332325571719423007 0.28212758273147520161 0.21567701762872334981 0.19634902165642686978 -0.0063219470440431177471 0.45765055962102785259 0.13081689852032668542 0.065770257671116133524;0.18623550261039661935 0.24087040647115168235 0.084392879785687505145 -0.38464473092731693571 0.0048789790940383659379 0.30667305685654799863 0.079262311780010627493 -0.086209045821163413081 -0.15579558804188364807 0.18517538167690078543 -0.40299610156969767338 -0.24843681427196390166 0.034469974498638193683 0.20187071857039856626 0.18789752149552968463 0.41170964544984589573 -0.10497873812024383078 0.32796407469734623064 0.68169385361706369419 -0.46937076372488861775 -0.13358416168806841462 0.23214306187789229829 -0.21821956993411084635 0.18515615505307098099 -0.074259577934107035002 -0.22398576019855401253 0.4306505991103211084 0.08703184999922504439 0.12023589736452058863 0.13380000584078785564 -0.13907840791723105611 -0.37113722647224700601 -0.11767529564329932967 0.18592546032218537633 -0.1871970031553266689 0.0076873974764103680801 -0.09393854592877995402 0.41698967204100223505 -0.14517143194049830779;-0.022938432906854211435 0.52994217048897485078 0.66149018583374286084 0.30776961843502836924 0.031161975370964462018 0.3011211956376638188 -0.21564236564808680896 -0.27041146801243909348 -0.39700557440362799211 -0.16355480212417239372 -0.1526079310522149568 0.075636097463147200504 -0.15072905625979468591 -0.13656704576867645384 -0.027244006773004324912 -0.21757017608462461689 0.19401893125636315851 0.14502624325500826363 0.057159013055836427331 0.41245996832634368445 0.29411816989220862517 0.14534769422963406127 0.15148334831633120112 0.059171157921090296317 0.11482598625738360543 0.23178910557824605743 -0.15779542183590861137 -0.022168585617887818368 0.11536561153695445991 0.13918770517770948092 -0.2183414751358428163 -0.2850083605210939619 -0.17319506354139366233 -0.17420831940976899688 0.20632479629464489657 -0.22184145161462559548 0.1264823913822187007 -0.055974230085642895371 0.032270610713989636431;0.019346842168102146298 -0.22900717647650364883 -0.1644741502173022174 -0.10010981789514762641 -0.53322601940681813026 0.54418963080739568561 -0.031395268649961088903 -0.46360719602224376157 -0.3697827907075120768 -0.16821376429699064214 0.035859514230590382178 -0.24188261797384763563 -0.1698270039168717771 -0.44838463604151290731 0.23894973907461403151 -0.073835678852869360278 -0.15998859478602323048 0.37237812228944933146 -0.24205731484437592593 0.1391058360105991154 -0.027422938910806847479 -0.14593451257620990158 0.06099687479737744833 0.26454085119674686233 -0.13369756454448028515 -0.24529643114036958629 0.18890711974444801546 -0.26504118038968477178 -0.27342900121789720513 -0.021218305586866652301 -0.57663493135865306893 0.36309476627954395678 0.091864205670143916915 -0.1809260247731600546 -0.14676940967055218668 0.18102942168187155514 -0.19457720196728056639 0.013229425471084681198 0.41519640768726095992;0.013247737265722845518 -0.23580324547311426464 -0.1131529782396064332 0.038117586842968551042 -0.39406918738053747786 -0.11204680656806842443 -0.010484169734800364432 -0.096073468327794481203 -0.050213987433415568917 0.04166780474708619425 -0.25473239958178056641 -0.39881225837855360794 -0.18445306174935480192 0.13069773336946760578 0.065870303831897097924 -0.4008001484165573669 0.056383783157164524269 0.35087198812190578678 0.074359202426131754127 0.053780011408865062428 0.29943128298693555411 0.047138462638890286927 -0.53566000817584458193 -0.057377835558518421044 0.65515631180720734772 -0.1212753793247550449 -0.28462269134436812834 0.21245541140371751454 0.42784241304611131396 -0.19394299180466426091 -0.11407204673682679041 0.044887558400482044374 -0.021746002161496327115 -0.057671754815635634106 0.25492597974344333167 0.43019543950080180172 0.071821856023264907254 -0.12556073881195534137 -0.12487794896663617639;-0.010504502449103631651 0.020938270593123638891 0.068631830487496700566 0.0017874417489270244194 0.20537840440653554186 0.19426027336116691302 0.1481909619508466891 0.18341136704440502703 0.064663484065393572742 0.0358800836211406321 0.23036548272059495512 0.2391336319612678285 0.14361954702864448974 0.13969009830765974356 -0.12571157165508520248 -0.019751012789819267362 -0.0073264982236922390757 -0.0077122089377462104548 -0.30312145527724626559 -0.15883212030047311192 0.13641221568037265044 0.092542558169459915307 -0.017706931434390449365 0.037951771426277362831 -0.14960362431567361674 -0.16860448822889001486 -0.0073688840458566301495 0.15060574223165273944 -0.06787003970452556989 0.018082375840911098924 0.20349994519640160484 -0.071011465870278261958 0.09629114794137688671 -0.11754711464611350413 0.08417070070743150334 -0.09444421203526143227 -0.054602883717418983223 0.0023356128234430268038 -0.049109994719351131309;-0.33317548505068828035 0.31555979651956106435 -0.3063350349268863515 0.28711445586298445232 -0.0084952885625033842942 0.057281826414214177812 0.39634994484610475141 -0.084425114223213817977 -0.21259423550916842216 0.22091490890770326683 -0.25936881376215775719 0.28508958162731706798 -0.39390551078104879545 0.33057024908869325763 0.45630947464299742578 0.14365606371625783133 -0.8085126861417536448 -0.17334803319857730597 -0.54797787235975015108 -0.21071969001658449883 -0.40934495628165584735 -0.13463985859195515271 -0.16531000231706161063 0.16317670435565562181 -0.099142052469277666682 0.17982049706438107961 0.16600820878286187687 -0.70730070640363895684 0.036207227831229205073 0.52638378252794737477 -0.22149824426888745088 -0.15884804319617118473 -0.063017672429710985815 0.11210031298511646813 0.10851390650518080716 0.30720947737282505718 0.097120259120214422199 0.0047695436691853262956 -0.3160225674542592178;0.24917614406062527088 -0.47374161870155628851 0.040917283988666557082 -0.94279230106032074765 0.48007340601151737847 -0.1796092053368542607 1.0467895240208515695 0.69333721948804027946 -0.23701374293253515968 -0.52260033929541616082 0.07793309875737200465 -0.26314545529241267774 0.14519909010941606242 -0.06301815154610734826 -0.12258111250638829837 -0.21890103445433853335 -0.11591281668800113014 -0.038069346494369729617 -0.10998906197783517302 -0.24216278640720492743 0.14323189050756196528 -0.18894221014640008582 0.59432978936707459017 0.19306919805045669181 -0.23561849761412884119 0.13042720912911978659 -0.070906847953959864506 -0.25997569781367002584 0.15649647946572359247 0.080255460670242625976 -0.15851559506951765077 -0.10826346057432686965 -0.11624280482690577121 -0.20954144910809716085 0.31178482410317953644 -0.41652689522467567507 -0.015383637486664061833 0.13904620587779029095 -0.14189243482836000343;-0.29772969115407121876 0.32144225922154068265 -0.52126452394298727899 0.057568760127935117432 0.17568228611633843195 -0.022668083090563909132 -0.034713842109744097453 0.058213775046552618253 -0.34747950940202465553 -0.37032927967854917251 -0.28026996999500641827 -0.33417587233704004746 -0.11749879578565071425 -0.24348399612374277412 0.11525564817906634729 0.26361428515377549608 0.30829875029605308123 0.32075962599911556072 -0.10081743778242566179 0.096856110662210642692 0.1236651777266060126 -0.19918181824813019354 0.35574531771991940721 0.20297689781156907918 0.11239385685198387266 -0.025382671986129489577 0.33195993036132354082 -0.097384861166684572042 0.10060312974607499292 0.18126171105842231457 -0.33951720209584962396 0.025485869751249074638 0.15998588321187703909 0.16571159119610770483 -0.0015481359882032960651 0.012215206653236183182 0.12476642784071957648 -0.24955719283536020869 0.19438334997331022103;-0.03554978106663712889 -0.026090869631719901256 -0.068596299348030548293 -0.55382690582976001892 0.1207554485309985659 -0.22325401412408257817 0.42054805610486473144 -0.066944271719335340931 0.34839371112374240003 -0.50434145937251129155 0.53785951509202889476 -0.10828908768084266612 -0.10417231786896394286 -0.28063359367501511388 0.45581961415659899561 0.15828721700514133963 0.38888032512661119267 -0.15425338573199687264 0.26879015912494441665 -0.20531333212027957913 -0.079023152077193528631 -0.16770720620283965929 0.331061969881648821 -0.80962391662306543161 -0.3705264428131431198 -0.26889487364934311353 0.26436800638969709665 -0.021851533164821614064 -0.00094664161725001999548 -0.11354875315898670107 0.071198553944980230712 -0.23935189860931715966 0.084275363900524327687 -0.11319522898578414372 0.063192592459057880805 -0.31902940401121587799 0.018684421898787134664 0.18190980571182160941 0.16147964354351881933;-0.52275509581686541161 -0.18672125788358495679 0.23625440315738277519 0.18678262976362289272 0.17605855885684759676 -0.074408034033236758464 0.065254863705973484289 0.11636601240942648361 -0.35206362186041917361 -0.39386537620410572158 0.1319046199012242071 0.0070928272824343097797 0.060186832279667618062 -0.11009585983343229965 0.11995501767091479306 -0.30616023085049609564 0.082008452618451035954 0.52212661383330416509 0.51902315452021741127 -0.30440553776934814456 -0.075671990274884012861 -0.591128094681687144 -0.50313144047894065025 -0.36362952056562636294 0.053240836232147287221 0.0015335218380490706069 0.19545879114897019013 -0.25114685148306148399 -0.29763806121438407537 -0.1481762935538678827 0.20984594198540443277 -0.18035331160663448102 -0.15250206004846147967 0.35924721860851849264 0.21739313841318910758 -0.34853384692169980807 0.20133135499092738585 0.46090346016721700506 0.19712472057207686138;-0.26431081549461682423 -0.078864389230888592985 0.0024188470936744831119 0.038628246248329695112 -0.047749779202689537905 0.35582146454787910717 -0.27259406913001049677 -0.33995738916976347976 0.2292625006203761473 0.41077983563762021646 0.12971569097625484934 -0.15202121803196264049 -0.11501759797202283642 0.18328283501605444061 -0.26098226020331022346 0.092879042721841720276 0.37577549437164381452 0.13767966450963847747 -0.1338022926376568611 0.0079240374237660796131 0.36031693588413210572 -0.63406190400890372061 -0.3458843718363348585 -0.29109183733313370723 -0.099696294539416530078 -0.1464564105645969061 0.28766493597579695374 0.49575665997435369725 0.41895278815243441883 -0.10807336503365923275 0.39226586561738813197 -0.046294983191820029966 -0.0022309772406054837607 0.40331038390397427884 0.25302898806048412794 -0.063508263411967968981 0.26467556082209275914 0.18203038528191176071 0.19792600693526352096;0.61810477500425686781 -0.56539170663126059324 -0.37037461209917033056 -0.76206187773119737905 0.44748783607243997062 -0.60735653409811674042 0.079559729150863789382 0.027381904054838129142 0.0085060195297916845608 0.16624063185941212462 0.097989078126721695927 0.18552609042168013986 0.29418616186490254005 -0.33435684271836391135 0.10893093438791241756 -0.15283039526206307346 -0.22876765057876732867 -0.28840832057225035401 -0.1034676646361658986 -0.41280311280200782109 0.097454863162468832738 0.10067024506056612698 -0.094231818755466753568 0.20319098849474284685 -0.32615989774075920815 -0.63702640195305493265 0.19502658756763771586 -0.044331307174421630268 0.35843221066711616896 0.22044852330954894937 -0.019168051806898719902 -0.089249642467775322507 0.42634000792248533118 -0.1705243347222351602 -0.061796418719006505904 -0.020858445270301936847 0.02689945521773486059 0.30984562703567902764 0.37814666412684239116;0.014531840481014317648 0.7715993158115261874 -0.041416554352800678818 -1.2383521881993440061 -0.11628136562196893233 0.27411452804760494395 0.42803080627344652909 0.06519123097128451394 -0.084668100565256504408 0.25862057100060470427 -0.22226739441034570888 0.092372736128823587642 -0.098891804882778350239 -0.10600177136510080533 -0.14257457483556962297 0.32872302398221153741 0.21268359047146340179 0.1977706711628371139 -0.54872740844665068849 -0.1957229380256524931 -0.08623096254684033124 0.19047378602751194321 -0.066076650838443967695 0.012093549352778749234 -0.17420460099489815109 -0.094869023127192336764 -0.078400304153810093655 0.1804978301921910111 -0.057055828517995364757 -0.046179939408987430438 -0.4940323602536404457 0.3276269499258618878 -0.0057304819074698656878 0.11127126411535498418 -0.15021808880798984132 -0.041796122617961242729 -0.30996408862023805408 -0.17886675420278952409 -0.1082708121512086924;0.019610425004690665296 -0.059686669488310806209 0.038143426879464682744 -0.17314202395963990133 0.51595577859488939154 0.30415414863018058744 -0.0032349392310122362937 -0.1867110278905338705 -0.36956848858890956055 -0.38367025224107709214 0.0036447446850859308021 -0.29897870553104666236 0.067402185138993722657 0.14706733457817222632 -0.4241475954172744256 -0.029926372522781140989 0.013846133423764589443 -0.26398917330206145282 -0.25686619126978688099 -0.059355397568853260348 -0.10304619688177708847 -0.62763226313610476215 0.36756733416794734604 0.30115553568290109876 0.01959361705772916934 -0.13403365012984039262 -0.11043378401156968283 0.19583048025148491744 0.035000011609694674231 -0.15002534949215215465 -0.63033556213370944832 -0.47465385305909973956 0.11828138201515187022 0.51398818217020769694 -0.10782842635853270852 -0.039841304201686328357 0.19484820416565887258 -0.37536360860524470295 0.16780741712380289887;0.34442054117486886611 0.39496710800455780976 -0.007707253090371821852 0.11822512913790922395 -0.057142545729511863561 -0.096102478390505077788 0.087768688907096006901 -0.25274950611526186828 -0.11363455652258810935 -0.2340633149416556924 0.05908420648844976697 -0.031847320986105917551 0.19809870253512304461 0.39482850558456827894 0.056671475191054990206 -0.15677401708124433233 -0.25481119376539473897 -0.10330508353863471216 -0.10095274317034062805 -0.15545474159522995605 0.17323225107691037072 -0.22944053284249127378 0.090831146545763949418 0.089902027472020570875 -0.27992999316570310597 0.21046885499106363082 0.079534960541280827484 -0.067884150582265129215 0.015476538452967043835 0.14281268941826247287 0.091552107850767713848 -0.13461876450588652898 0.22861555401190200576 -0.22853178767040482899 0.20363813780214354288 -0.00085262684729506613146 0.10968522527145281587 0.14877583290690396534 -0.10455729044167610953;-0.43012097252871883679 -0.35822403591310070237 -0.50375735081660688586 -0.056131882379570105512 -0.1702664034203298371 -0.25764962364561538877 -0.29012792319271846209 -0.51746623138698133459 0.066240865247064309451 0.25173253439775122864 0.1941786303288007276 -0.27644930030821979194 -0.59032368538621959875 0.10406676450730047157 0.070473811726583457382 0.018743150994087139083 0.033852266108320164251 -0.23372508206683079157 -0.78778690402498896539 -0.47203601301991815475 -0.24441118564951633263 -0.089929489507645066215 -0.1073467454421677264 -0.036033864374761886973 0.33941805296639737666 0.30696315985714700547 -0.20978582039855542263 -0.075331533413715845438 0.25594149613419103773 0.018097018872656720628 0.21553042758575380322 0.70887435181896052416 -0.14549465643873668586 0.37749866011835658819 -0.30877981061889347991 0.47244834520280731827 -0.38979135987926299967 0.20366375589931004497 -0.12268576864814582927;0.29513291618837927954 0.21181217976860189367 -0.67429635857746450522 0.44423264034366205522 -0.16316630946253066203 -0.068985923096611334593 0.19469477922958486338 0.59165788499061477967 -0.6492958941307939158 1.1293120871390931459 -0.59436980376688730576 0.096727797484185917831 0.011591862053796720203 -0.53581689156408518482 -0.68285260734405051064 0.30177483919245601252 -0.45820032883894035169 0.19787371123684588392 -0.4076686003336977282 -0.45109816460834872842 -0.20813969210146562872 0.61049136489658439864 -0.2087492781988778412 0.57496815208257456842 -0.25289658859712366157 -0.13754588584291804754 0.36528066976628920104 -0.076797999424149387959 -0.23223623924970088206 0.28697872639909183246 -0.12704488456520568462 0.22342648924118069242 0.11983458875079690265 -0.037338913211456180308 -0.2694726524752713015 0.27399275214506096932 -0.1989064817299597554 0.4420527893154191923 -0.01922165384674570654;-0.28218639351528684855 -0.27372378455624923888 -0.48523799062510852842 0.29998362264033345825 -0.32152120563940200793 -0.35368287899804989882 0.37010304149024547682 -0.054955753635577843375 0.086140328760907519667 0.23193007786137131987 -0.29999547257042002979 -0.079718269643346592601 -0.29451150867940267819 -0.17195816180600764778 -0.21971248550044028547 0.24639119763325381673 0.065580211602029675477 0.16860843964969543518 0.53457292608368778275 -0.24638391671632708935 -0.11451960953239770369 -0.02885765139708902291 0.28216398358234645594 -0.19390412110690852243 0.085509330676840439311 0.27985782445239820726 -0.064586903890698765807 0.065396409980133504702 -0.21022046941851502133 0.012121166211575391813 0.091800128245148326922 -0.41427364753698608935 -0.11051284785840831404 -0.15324526237436322806 0.091719170596812962803 -0.044270341325118728326 -0.11494545993998997457 0.0087855140811341093238 -0.067058366628672025356;0.21681488284158126345 -0.21315800145536856203 0.23778227754983666253 -0.24283986135290647201 0.19440518164615488983 0.089742802532551527173 -0.21040224269016991054 0.11644788725870357238 -0.25168864316533001713 0.50658676176954609005 -0.17605194008375682491 0.59883884183630609055 0.10365122816182287258 0.081262317799390665352 -0.43752390869580920496 0.04936075019648542006 -0.4071774208258693295 -0.022481151308919995052 -0.25863714879062787988 -0.095279103630656100665 0.24017779566050759255 0.36740288654632252685 -0.098087620956874219114 0.054080796864594958551 -0.0028020084024803727438 -0.23638534035820185641 -0.053921179327230450706 0.24958838441618957926 0.096481592278005429142 0.1962917099030617174 0.37119820720340573894 -0.21792997253626322784 0.065484087203327601134 -0.45083318636113434152 -0.11174983511506794698 0.057554811830394070338 -0.084159303694373827076 -0.19822814783351966339 -0.091459784564335774859;0.14784327055104304338 -0.036727803293040484078 -0.088640582281601348891 0.40764024672164489438 0.54209657797545540703 0.019467487525903305612 0.24436745152219757626 -0.088483634748965561689 0.15838496673793386882 -0.16959408144647086791 -0.11620968807462805916 0.12933162999516603642 0.10991460324191537623 0.026696615734885957572 -0.44791794896416736727 -0.36783485084966172085 0.39929195480087908976 -0.14823843358543609128 -0.02292762806040885698 -0.58475707277584942911 0.37443023539858982796 0.26853461045813853403 0.42322486724578933792 -0.39788692802229064238 0.52825931964411720898 0.53379511082599861993 -0.4280911896047449039 -0.29123007449360316379 0.10125588920320546804 -0.4232151391248512029 0.44471450305541931902 -0.16191277534796749693 0.0086607025420609995425 -0.2548593651148118866 -0.64610779388149708335 0.52161333153985756095 0.24583879676281600313 0.14814894199344666448 0.10970273269642334679;-0.29364879320002029717 0.095142778494254620636 0.15279919678923858939 -0.040439362264365071031 0.12634269573290288213 -0.29815108856981020757 0.09041360313948805516 0.026993200025156351141 0.22319850131057486498 0.25367420917816674297 0.27210393853161457534 -0.054163372655393025867 -0.13925053704286349809 0.2422589336845958341 -0.026116336326374126053 0.43062638064118252679 -0.11421206771573166883 -0.10288959840128911183 -0.18092030481649715168 -0.053873094636802107416 0.062274185886066882323 0.39794766377575963023 0.15426211907892342645 -0.27281954768369021114 0.18318972071741113083 0.056230418201085957675 -0.014314313318878602727 0.078611826534405238043 -0.12933671789183945333 0.017530280888950398183 -0.2716007387040032528 0.12074247061925004465 0.10463706523350480015 -0.023834300268847450482 -0.20035473910286297206 -0.0089272417270850491083 -0.21672624817826061094 0.31361639618251080375 0.036694161523108267953;0.071073468198430717058 -0.50145835924520432147 0.061201386218590517196 0.49389486062283416423 0.076088030846031773358 0.19055154699138360241 -0.51556150835155223344 -0.93242647515292353955 -0.00074808210274345584428 -0.1169259499534543445 0.43264914898157347256 0.62256799887855895914 -0.30463543330904868656 0.2446672761467276469 -0.0048992014209143803366 -0.33666145428978294651 -0.30156627417567777316 0.40279757457948461852 -0.090838669090161694442 0.047410064745544891474 -0.40471044239945275223 -0.38080220393989749894 -0.24740806368970436058 0.37616205699137827967 -0.5412477373592079477 -0.26456670415291178022 0.18021620557615292135 0.28696470086485453832 -0.25797431514173319034 -0.29032756048847840891 0.16613844593597626442 -0.083895140548112798196 -0.0019955275716158279997 0.17709008295739020467 0.088444684613941434992 0.084849367469211817161 -0.50353415261510592327 0.11950549681339196761 0.28167906775565715316;-0.14762040290718797531 -0.27374469494729153363 0.03869835808404186589 -0.14324281696066623604 0.0043033156006521827708 -0.047760790988062767903 -0.2486229490511731588 0.59028456142083540747 -0.25697613231633742448 -0.038134775210760835096 -0.060039813581384542107 -0.19577944693074425531 0.030950878858255533727 -0.71950642150049004542 -0.15283567555229282675 -0.40470087869370607869 -0.084233559885092623709 0.12981730821711223722 -0.15990642090206369508 0.28402989572155701303 -0.06609587637145208916 0.29630321559764127848 0.12561487454361877636 0.2327040945339943212 0.22014964657983807084 -0.17296975572880635141 0.041637185019555780774 0.010489906336141774368 0.11290176880862023978 -0.19856423645849949344 -0.41781371880448336942 -0.11195418960007202935 -0.075693586990720082563 0.13062612289800715204 -0.29807103477487423282 -0.14663148697220615424 0.17062585302189556269 -0.12472266625661747319 0.0015262202621198830976;0.13254355025031941406 -0.33964797051030243269 -0.4513529716671265124 0.15362432399545353223 -0.53792593198461979842 0.20625027597905667975 -0.36816312391693667427 -0.23431713401878945247 0.6335761469274505675 -0.26520823435542117963 -0.35186886890890584079 -0.11388344259190663621 -0.56086149249186334487 0.081739132431853128713 -0.84276139598463906122 0.22135760002022172865 0.60476419059642194664 0.060506673804589891641 -0.52524942792518114487 0.2982590150193799583 0.23586345400520697391 0.3813756671679827126 -0.20695943670316399587 -0.08824077730962348598 -0.26331377657463217457 0.071490343814056944716 -0.22737106377717219985 0.15721656903190842081 0.36377726763741730087 0.12834682709961262037 0.23662206600915483556 0.59157177909595048959 -0.013007902548056730213 0.041221821362253704968 0.1841802152605864773 0.13386516771359596722 0.38313691019929452253 0.52243430917388622436 -0.16702790683181606424;0.14129758642628115206 -0.087700732270429321291 -0.52044371149955070965 -0.30686408512825408268 -0.29064114616884123565 0.11002909671099306288 -0.22365683143254030951 -0.097805686656599485906 0.087255967185510985296 0.60600838002009860261 -0.075146521974233548846 0.12534143320027643642 0.16239925773136149045 0.035479159265273896295 -0.19040177560396287504 0.091877507994585314033 -0.24530875455089751203 -0.12081677647977374923 -0.46652712038588117771 -0.24471495443089230637 0.036916184226186435358 -0.20373010423390877643 0.06403442616067217541 0.12268000806183426699 -0.12324791617358070439 -0.33232810155052389112 -0.13163069896143730908 0.072680930854467612479 0.046443666268782921036 -0.17540423916992181619 -0.2039411005763627216 -0.047877368755326984995 -0.05135732811710135709 -0.0012667301477991693703 0.043921832007122803276 -0.28628123844658148744 -0.17512101246808300936 0.16021554318343550483 0.22744791929586158363;0.36174452852586153062 -0.36863663840463717358 -0.096471573486912196027 0.6875084094561795256 -0.39510808640345879139 -0.027261799662058702753 -0.46225631308574183231 -0.20645252708712097389 0.35163412792476517188 0.066941560037332259459 0.25408419670381471311 0.19206232317962118605 -0.034516024683207302548 0.18441251934338256935 0.17476060757759490083 -0.014833260790794913081 0.025492823411308075665 0.039647090360322816138 -0.37659083327150821852 -0.26980587267438466137 0.18742260221656906194 -0.057870224724545692163 -0.73346642508702553087 0.046498480539521283572 0.073800176193079561338 -0.21904991326381728634 -0.13623589369990621312 -0.027950123184104572194 0.19973708446360835533 0.31409288054591771866 0.11197604328661144024 0.69544738603099276464 0.39235359737820246773 0.02152171397496717431 -0.22412718363593170379 0.36766417022537239978 -0.1861581864134052855 -0.12692308138315666621 0.079633770488877028693;0.063060928595535928332 -0.034680883996495680266 0.082652227877745204632 -0.20023796634189777732 0.36760427420329033765 -0.032339522107144857976 -0.12169934578612826015 -0.21408843633547702812 -0.12195600522300585611 -0.093335023558755433881 0.014142404302544320238 0.17277282414895708818 -0.11169765963009140042 -0.046042404347233611972 -0.42130189309441434808 0.049959451570885909932 0.10493170454587949503 0.267351238527598567 -0.0036390117965108409459 0.10221400063292215843 -0.17157233950431965974 0.14119757505317451218 -0.26276084842766400662 -0.010240254453383938749 0.080463920463139493311 0.077693338621123805843 0.23805133855180196645 0.19030369411046021977 0.37297110186578852353 0.10927410214780183817 0.27362299604635331729 -0.065430292347946006348 0.17186993650656295918 0.33173608332553844447 -0.29947190249019267627 0.14646948496770026416 0.45189252173591221151 0.016635221664155153132 0.27927625026931462981;-0.13169242799818386969 -0.46103595572208766473 0.17965095588204241239 0.62868777081083804248 -1.0483196672500343372 0.42066602745076364656 -0.49447190159856008185 -0.28382597101236101134 -0.0030024204649216484908 0.17494644420311125654 -0.38672916967723003356 0.11071912371103012629 -0.42147620358009529884 0.13652060526483036917 0.33067020298810068102 -0.081964798881965200694 0.039962995283258286039 0.3072162945344263929 -0.07008560977362536526 0.15419923780026509319 0.485156837654061035 -0.22148145857258527691 0.18228080103285987379 -0.028996677278143236089 -0.22806958248209385776 0.23489750816901783237 -0.0056150167352222377093 -0.1096688876235183685 0.002019604213989278918 0.088603667052770257451 0.28321377997586000275 -0.044954240067775541601 -0.072231978846657773907 -0.28539097415539804725 0.18488682008510212706 0.042346326060695667348 0.14923980138622600089 0.20007275347464897886 -0.28079480347505608728;0.19274504264221417604 0.39259771206508886632 0.0071876062313487240618 0.11627221809192458957 -0.1492857385700596673 0.30912754126922720177 -0.17805103562782439997 0.31902482007017768373 -0.55595644027939972176 0.28436202195631310463 0.088831441923625215074 0.27193905572799770276 0.3366556740951492932 -0.092580867482346423936 -0.078143399740649391316 0.29572944468979800448 0.15313956562015856866 -0.029547828698463632358 0.39277918566900521524 -0.12283409382337953653 0.090467418509379962654 0.152644467343618917 -0.45661317979463067473 0.42393798717408437415 -0.38020374606097362413 0.23810211651633553243 0.36227646647729255802 0.30429574668560777084 -0.28159833685132712455 -0.08939297751459690522 -0.089318078232831610297 0.21680112503481130393 -0.24648901426421665484 -0.09911009394601749678 -0.023253910452615510207 -0.045364976857174062197 -0.11540989967834852647 0.15651787127265973099 -0.042297152775164742478;-0.21478193336170339767 0.10616472668985585392 -0.17220546395952879282 -0.1254309655501719134 -0.062793488823806101196 0.36932068480544993916 0.057063990354933022409 -0.40879134524856919342 -0.01362960419884329949 0.45788111930232477942 -0.32937819646609683977 0.15573878924209397234 0.24180008077078801731 0.076992049547165819501 -0.04517544786101600901 0.31039417207812586286 0.20365287593049574699 0.29844247145854202463 -0.050632485780602108638 0.27259156025384267963 -0.27639706094077615139 0.10726755180530117562 0.11308548840090615339 0.031983173771103691474 0.15353720509402943306 0.1547794914521519738 -0.0055088194471345219849 -0.046065688237385701842 -0.30252261049756556943 -0.097411910364719092592 -0.36786733852248343357 -0.033801746620371990459 -0.14731700467521383069 -0.1004254270377511471 -0.013071306636030712023 -0.067507449933165777911 0.24165237955543664161 -0.2115177750196205464 -0.055901560913663897456;-0.017125110380582161951 -0.092753759800174834238 -0.00015520460016655787672 -0.046490781673042484712 -0.033739411534435340134 0.10670882058716238405 -0.07621151646864889051 -0.021953766610258409336 0.15306981939985811469 -0.20971242711603244047 0.12037791216418208817 -0.12009884246712024258 0.45213052306049733575 -0.26854354372348326896 0.31718632239552346785 -0.20777366574193190107 0.30966361279479287516 0.47271924296099104845 -0.11814634924712841269 -0.0023542850077695569311 0.12426355074028519465 0.10065708586168219119 0.23571055221996684015 -0.11898609704591243952 -0.23291597623283627483 -0.017731826787264749062 0.083017174481642239114 0.21835243541139626178 0.037981308910230077158 0.097900222978860584888 -0.0099379740103942397489 -0.059619407786045006126 -0.21156091805850418819 0.23687716156561788861 0.11511021076282113018 -0.12995912449118060539 0.030219926015469765479 -0.16735407452187867072 0.079382951658892572655;0.015294025430762102358 0.19629111107886132448 0.091009917299407938618 -0.14859921468336026451 -0.026927191537899925616 -0.10107337948387022653 0.20861599737887129291 -0.1328970558174564498 0.17857140024227130537 -0.25968246739544292856 0.056709665029388497959 0.072475551337132848584 0.21129098240243615603 -0.19709616249974407087 0.21531902994165760812 -0.23465843422391385875 0.062570999139375998999 -0.011277795844661809427 -0.11262269066318930655 0.099616099536448746155 0.11107276987432786186 0.17795659431289290175 0.23922090054147815419 0.19068105065248372454 0.15350367685797533523 0.2852695513755455492 -0.25397899138769786109 0.022638472085228990294 0.44002468062714722441 -0.12465656677294276178 0.063099399073787837411 -0.4622771431222660321 -0.14060287235715512866 -0.087134842236544371441 -0.055451105139076278805 -0.40658177860238775558 -0.046158803543323197183 -0.039139377740812775208 0.25671133032113480077;0.31865898004010551059 -0.21087985239548115435 0.31215030292856982275 -0.46056204109165366223 -0.56929804627575053555 -0.088368560844015925371 0.24225996125388365998 0.057030412903829291738 -0.066838972739423935243 0.20936873051316243211 -0.046400465424836605244 0.33789895441456074821 -0.47069073993340004858 0.055985414996818264055 -0.1362540054620777763 -0.015973049283194189901 0.065276621290448061385 -0.077140568738601839049 -0.022304142007806081194 -0.17373843122781207349 0.36393654155855520438 -0.10217909221200974224 0.037859413979453589161 -0.33042622549603584137 -0.086185729684436454545 -0.30971001773365119947 -0.21547961841814267103 0.31318162075099315045 0.34946085406155297237 0.09864541146183203324 0.28786472572908800016 0.15179734659826071841 0.35273088833886806492 -0.43027016258512806868 0.29096590032689623184 -0.44171329310527512879 0.27409193978966939209 0.20694091246959475661 -0.15329490875422749352;-0.16593658348554626847 0.20328674859127676688 -0.33987020849993193616 -0.10432698227320555406 0.28573877019625765206 -0.035444960327940151779 0.30529135873065327278 -0.29380492799778368251 0.0020902913822613347627 -0.035719930154375613418 0.1786843590532790349 -0.021453290273426663115 0.054031004128217839655 -0.16437183028882787483 0.43354039623955920035 -0.28024666446608109682 0.39253690112900752052 -0.28058582765864986674 0.10141277705315829283 -0.25529260777388385062 0.14601685694947283412 -0.36743615368480148087 0.083194226687914762941 0.18795210193450534453 0.013821361951366175833 -0.17223764387773282669 0.064580359297108938521 -0.38131886960753852422 0.1362190489924259007 0.06740402830516120658 -0.32980105773113765899 -0.25808404327466527572 -0.25036945581645086989 -0.30051094151485885364 0.02422109694108506156 0.018986468303923552392 -0.19152623004505112125 -0.26237837600371727298 0.18745222443493364528;0.13492760117419816401 -0.35184000048706726149 -0.29892931145388174086 0.52045922716541315189 0.080534822355495624957 -0.34464934983446554595 0.33206072407863235219 0.23043113147591465228 -0.15015853595120873254 0.21982281674919859626 0.088778266675458114565 -0.062320909959844114634 -0.031957526331211662252 0.25738754954979314871 0.015161785318540600687 0.36099982829118204553 -0.020368852369822325332 -0.099735553212079164354 0.19398405737692478445 -0.098688905479178787306 -0.29536028671288044878 -0.014300448671549469137 0.17419834459867750143 -0.10024579294897126291 0.15878193344727026259 0.065896691493498277259 -0.22828292107356423779 -0.043840679773328602997 0.092757852555048259102 -0.071178311553135240053 0.45253548387370740036 -0.021471951968180094661 -0.22983621353193264825 0.14362326514547774092 -0.018224488669226511506 0.082084873572995903368 0.047995457598285287681 0.1216563703783824224 -0.10074086852883161469;-0.16859588113288057065 -0.059354425633391057204 0.07282378318253025784 -0.2834250432163196165 -0.25273606855980351726 -0.54989486826906652794 0.013247196591503848651 0.1415958320433436668 -0.42078890857938977543 -0.087890884021236376222 0.10380111054078118571 -0.22204598119523402677 0.48672169992537772654 0.013785038409999155612 0.1174325679796353189 -0.064025496783540025714 0.44698045267035579897 0.24781513793007720059 -0.056379159237466572319 -0.10924160004708409477 0.04507400888598100952 -0.080803020666604941091 -0.48764115515357864261 0.27013143820142443419 0.44957565105860913812 -0.11741662186306864313 -0.18898494028322998517 -0.42378012747061627463 0.10349879427294024492 0.21589326936404074075 -0.38798009618430301382 -0.084047938576813224776 -0.25131356091159068322 -0.24429076490980344838 -0.25360878019194982302 0.125501137663798501 0.11433026965469222924 -0.39912392550524450341 0.1636595142965778793;0.55426981048186063639 0.38406366670987734935 -0.29268798249689148561 -0.9380757182527059701 0.026805482833437380141 0.39981713873900465162 0.4635574999521108186 0.35117806013855629166 0.099730141048159387518 0.32474547151587906946 -0.1814097594137555336 -0.047485441053360208374 0.028472401534006978874 0.18928955644689238191 -0.86833187144171863903 -0.1457052030240971463 0.057838230891056073568 -0.2534520411470331247 0.44979285126549806151 0.0040497267866379735302 -0.33451924945484939888 -0.30986431094854433033 -0.15480244421339092731 -0.30024087136603350157 -0.10626407414462776813 0.24021676218492729604 0.022578358912743547171 0.62275614453549332783 0.13096912534039731324 -0.49552629723079055779 0.0075245283630276608294 -0.34319991514682346434 0.54481686801999096303 0.5123883544888856445 -0.051967125436858420395 -0.028513414840991992139 -0.38801484745905306939 0.31437343199357492551 0.34162422721864360575;0.016826285058829746483 -0.13984278483412601601 0.386457005316726665 0.18133556030665543002 0.22440042511614666232 -0.28962608288382069022 -0.10145905154574608176 -0.17517356480001319841 -0.093984453834061204569 -0.048500837888604972359 -0.061096650720251825806 -0.34149590478237862312 0.064370317396072906924 0.27286017695979747355 -0.15124395534920428985 -0.17672941406086084548 -0.135788725359301643 0.1455757498657815896 -0.14628833727003642817 0.19796454254602502409 -0.1498119740063362515 0.013446660070540294996 0.71728011076489284203 -0.17306720985260315437 -0.061084629392115355473 0.044766188341505766535 0.26823487551278502039 -0.10216680444519525561 -0.20226096618896372004 -0.010587172174421014686 -0.10839994457336427081 0.046208275488924588359 -0.1938958673461924076 -0.076174008919914465432 -0.15384533975075392886 0.016406699467659588421 0.47770852427109844474 0.024327346542614744496 0.056323755454025695166;-0.32433520133070076197 -0.12796812819255151683 0.46738993255820576733 0.68272365961914671662 0.062804211183296876353 0.53926378457203827388 0.61027208859627046778 0.18499782773242623435 -0.30107450148756692565 -0.51548234536284642804 -0.32011658016427330109 -0.1456513902854902065 0.036245642275080702799 0.13384593254269433471 -0.51758627225740949651 -0.37442114971176060356 -0.39164387513118953388 -0.19591326294399413754 0.56461250206060564771 0.082717436645280459362 -0.10314993016864096309 0.075070198237918300821 -0.13836998413509327133 0.069109855339826317677 -0.19576553803897661643 -0.049231273826046063891 -0.22195694276348515439 -0.075328301108107037498 -0.12096314503394729745 0.17835991663255457151 -0.16414144229468002889 -0.51875152528108670058 0.25035566141640885895 -0.019005001827530086655 0.45801793821215425195 0.23402651275023431121 -0.24016791037006393617 -0.15654691349753344087 -0.3696467790494517569;-0.23057296138889168957 0.63836614717387307749 0.52743201415147689115 0.55411992329165415949 -0.019293198965866724393 -0.64565819005289026844 0.24112236517908136602 -0.29411439471223599362 0.17144204254286093958 -0.19902171675682120422 -0.60680773196546067272 0.050128347895387635746 -0.063476981001886076394 0.69492755706348030564 -0.16572963685792024835 -0.70062250483631338671 -0.81960251957446050852 0.12167980424403161688 0.31700369152548923957 0.13294431692871702677 -0.039117796625238746011 -0.58037713300989635101 -0.10451730260371716597 -0.29713746878516733574 0.0484313818166580215 0.34841138603452892486 0.37020107834962912019 0.043457361427678163623 0.0042979650921648945849 0.064204304376129839316 -0.052949898453692828548 -0.20058940401736907733 -0.1925943139673150506 -0.011287902534874397209 0.55198778117261448894 0.17300232061012141282 0.035200420195269553625 0.093979302045239770935 -0.4157805745034581224;0.21818160336582487213 -0.1573010241487429739 -0.19500617449455823205 -0.24216626115598835489 0.084008270834857859399 0.020182545666205850554 -0.018104715954823841911 0.070272523680346407615 -0.010840259557391804246 -0.12704926442962655164 -0.10915456597411632433 -0.24438422669938891785 0.048479580567693247861 -0.2835702158984513277 0.30247706425100895355 0.057279289400692635914 -0.26619878368738392194 -0.011918287687362399269 -0.094725794998880813447 -0.071471207035980408029 -0.027902070649085616155 0.20295736574982670142 0.37141189586289730107 -0.31950643688842800261 0.02008486563502820052 -0.16962848547970599267 0.043699329047892622457 0.027587444951167605645 0.0013356854680193833151 0.16504925285636465326 -0.35161468843030713183 0.28454281174138307264 0.15999447041278624937 0.33074194524230421388 -0.12208032275816448065 -0.066972221669225812102 -0.010513209075823383085 0.052768407199077577152 -0.058109316300608025718;0.28990330503612277147 -0.85248916948492015067 -0.62982516960263523753 -0.1908273972571208621 0.40807931306104450186 0.31573367930663620573 -0.051421693732147416567 -0.34812838646175631174 -0.20397012362075772618 -0.25822522651896973045 0.21278505115011528415 0.020332326988567045456 0.15356442783551521591 0.37465612587789559607 0.31681491282437768131 -0.055481881434045657309 -0.019923908062489382315 0.1626358914735233363 0.18143740186264079028 0.075301928589502062361 -0.22254964490789436171 0.003350879835165104792 0.11898877814376671025 0.34855881120541543083 -0.11199864550547423969 -0.094910407213034786444 0.058419833576931687324 -0.11903802852363255804 0.054511216450884594775 -0.020810834601522953252 -0.092286093108222666537 -0.22436155359889339844 -0.088107095089896184104 0.22936343138289796983 0.19753729954077067776 0.022207749031602424389 0.028629994694256654525 -0.020504545514959251346 0.10659761448602753098;0.19532679964058130562 -0.107682540068494495 -0.51988972598757532406 -0.053962672102314930556 -0.22961321006313178961 -0.067346478029435066781 0.10950345430371545563 -0.3206593492414253066 -0.079826502701519183591 -0.07248621890546647073 0.41766573806327977891 0.094913605770803405326 -0.049144962401220515513 -0.097861252061450132445 0.09642364705459410823 -0.11800856941556785162 -0.066012817025664860537 0.089658949174868218801 0.18554046577494559545 -0.097864932831306442051 0.09831119168879472181 0.40609545496741183968 -0.23230950172492600969 -0.034580685148554710096 -0.23273131290801724047 0.077560039080269399525 0.18082406717457064071 -0.076467954501246437893 -0.051519438742504412854 -0.12448541312615986343 -0.13723479769628876834 -0.24311900101169084398 -0.011682151863615776108 -0.2490536502371752392 -0.024663308357034056939 0.11007951245356839554 0.12345047287808341707 0.31622994281006633344 0.03845143826431104972;-0.27280985153874676152 0.38310618062059587086 0.02633176738751045326 0.37822561633911649936 0.066578239057249605226 0.22668426694396148768 0.16923418058856540269 0.36134423997972225928 0.40671188483554437942 -0.10650653752912525585 -0.30592088324054456105 -0.23086799115234765689 0.41238449067155902306 -0.20022399564795562155 0.20628131222880066731 0.092632899104948929203 0.35756557207809047672 0.42187736557820937344 0.2620964164925763118 0.47179455050858631893 -0.49368010897741532172 -0.26118571779040361536 0.25091603922693200834 -0.38454106421454919973 0.39078539236151571545 0.058513685011022567584 -0.15297643182534412243 -0.23646192413242531072 -0.15005953100343447093 -0.17080814433389845952 -0.36928641478085783012 -0.019504011639732900252 -0.27913482200548472845 0.21928216094560082361 -0.11482746581206126901 -0.043450048500997651146 0.11634205754282866963 -0.30238824636714456418 -0.070080214438750176864;0.31096214974641089857 -0.073310283689991262435 -0.18199847971621754827 -0.34141108342834991518 -0.20678156844761666489 -0.22985188200055375884 -0.36104358618049775531 -0.41034410156959472138 0.083539413316800620324 -0.13010095378950031764 0.12786306812192660409 -0.029160399274887227605 0.08833541620447731002 0.048928517253729014724 -0.22413534394435588593 -0.16715874634195521109 -0.17148267164278274688 0.14465286869470433961 0.12676624078051243472 0.2115694068092589808 0.15431376399169230429 -0.1612990263883833375 0.053226133944913614493 -0.14823283358725777847 -0.060585446272733711748 0.035791119441021215786 -0.21598471815884917602 0.1336533875633888202 0.011681489466459412524 -0.077547822104333655191 0.15422914089761927126 -0.086989648881524384016 0.25419903760615419896 -0.23330668949004934598 0.22654700328596244496 0.1660925366051569374 0.084589029640400797971 0.040780253848077110956 0.028120558165968232572;-0.30157260486849718495 0.057741477459659233673 0.14431587389787284281 0.34661246643391380173 0.2939392543948425307 -0.25832841871397060896 -0.20812714715105556929 -0.068030202507616988061 0.049828015203659634103 0.16076895096955326481 0.25590318180838111939 -0.25983444456508020259 -0.31912332784081365311 0.03197893974208664003 -0.34386645181083547174 0.13204900498040716972 -0.26735592134358693306 0.021109371332260862958 -0.017688543365510438904 0.12248721889006812524 0.1357863243884891713 0.051841029504285277008 -0.065606583072025548287 -0.10200409270537441619 0.18919538109716363405 -0.13352714289836598027 0.11962620465343719312 0.0084997133467398996998 -0.085017935699042257447 -0.15662630862900225881 -0.058835147762487896572 -0.13037832482444802751 -0.1085306250613008866 0.062305892947564431306 0.085782139442890842362 0.073373024703733719099 -0.062726234360291302505 -0.029379269299236711321 0.0033151199802732124813;0.66932527614530090698 -0.38438263319043974864 0.11102002724716394932 0.91471715750215620844 -0.12418337441617864625 0.0080120729664522501168 -0.19046650823219499205 -0.24191789548624847983 -0.40670861599336644021 -0.48792743706948582538 0.6095929878464179108 -0.13583061087823311563 -0.21809319044403446819 -0.14679423405033514838 0.081560179783555314392 0.22079361848830084125 -0.033750002749659974155 0.36881779145996768099 0.35849591504818506538 0.12363902417276965984 0.42708166478610309902 0.38926340232138484376 -0.14332822658585819831 0.027206491427052607868 -0.21961947215982802195 -0.35275564281680238388 0.53880637679963605535 -0.20273942592258531459 -0.020235843121237603176 0.013963190438091150486 -0.061567227965887517949 -0.40277516299296023394 0.021398331109799145072 -0.4845266708605068251 -0.23585983865185095043 -0.21972072591294949939 0.31345687541313405067 0.09840287384541315796 0.039318748336419045986;-0.22219445770818918584 -0.15106034226678788368 0.080344708494381592012 0.059401504563337051423 0.17606902406336280564 0.33722670195323234399 -0.37808566061505655131 0.041178775879071718991 -0.57070873393470433754 0.23794411482592386919 0.097862506522495951167 0.11242526361126126133 0.26018041294467775248 -0.32011280353810678267 -0.022195702737224563827 -0.23955440698988481052 0.5090108323354327613 -0.095348849823537390469 0.061205397250320467406 0.26826137168716629455 -0.16542201185269295172 0.072231803287204424113 -0.059355891477293670766 -0.072013948370813526956 0.1005084660432779553 0.096259961886638323314 0.026218927318211869559 -0.26916544385961110875 0.026997996926463450895 -0.0076548575940650342986 -0.017102695323775608111 -0.060350920355615525481 0.0099276459681778631006 -0.06560635853479121482 -0.1076437125906065384 0.36930331811987077151 0.54951016319361722928 -0.18675748321359639248 -0.011506215277055722307;0.1195000539334426376 1.1042400335463000705 -0.11172648589244348061 -0.67474912095989214578 0.119279491821061151 -0.16691018225954346033 -0.15030187614802190121 0.18971048506504994968 0.16331187985823913955 -0.019396953189897370162 -0.22755692903493746071 0.19938220858032548732 0.062336232406248297255 -0.82944625887097134243 -0.37182390870917486625 -0.0084310711313267949762 0.39289360810352746967 -0.33726912233982569989 0.23829269990914614397 -0.21176304325332742651 -0.12166642881861283731 -0.34095428703804320225 -0.087018098607750477003 -0.088408067134888537741 0.16388277337371312536 -0.12939793219187034623 0.30356319867509540256 0.098600119382603323981 -0.034688601574892827251 -0.11969371768529686595 0.12743041791830447829 -0.081290733013922075734 0.08784344399086249644 -0.015260752759286098229 0.29737992223755166377 0.042729803058329310361 0.28300269283535978149 -0.22046369215912439699 0.080225331667450605622;-0.23896553404851927915 -0.068959665657813945527 0.29304324963849703867 -0.063080062745122900125 0.010597415763043609854 0.026121565798222116245 -0.35924374948922954687 0.43621244245833284969 -0.04740642204609267496 0.28604141210748545987 -0.35458507170115760587 -0.36009970872412266907 0.46935426265161384052 0.22531044572310016116 -0.61069468675637494925 -0.52129082095288126197 0.12747071226331410654 0.23866999587331100274 0.3549364798156987022 0.069582294993685067652 -0.1165473766717042281 0.066433501286401089314 0.22109708538489780683 0.036354994935414247648 0.11638319588577586416 -0.097015619300606648068 -0.075120739853340098846 0.18698433018350349433 1.502111856265669898e-05 -0.01864060536320004749 0.16630024955509928319 0.11417594895360314022 0.21046402186537052637 0.074775078209837864129 -0.30356078500405314635 0.05344143865784974079 -0.079420002309095127924 -0.012915712776142916629 0.05086314722552848222;0.37187024488856607052 -0.22810013743768076111 0.43116096572832240952 0.51451943556525159273 -0.10121464254650772152 -0.41282349321613603932 -0.10416652838890036459 -0.014594270696827201308 0.070430496112667051456 0.070105705348104938035 -0.10321455804056210714 0.021324057576025422234 0.60654394222285157312 -0.2424018684138585511 0.51565862234727277702 0.3120841214042028855 -0.43476920415625791572 -0.32873059202620791286 0.35333261237082480566 -0.086504405291777913822 0.11031233149664068649 0.0093469643776842095684 0.14457541530150003206 -0.10821480040873752981 0.062473566283620197981 0.020324612935066540403 -0.013338443872643854921 -0.21959348165003475528 -0.1815976303949044246 -0.060353361883293259182 0.079997500175322103222 -0.15612220545312274766 0.053944850451733458718 -0.089951816193618874817 0.033339834601899327737 0.061707739339286457603 -0.12647665354112627711 0.1913146879149122126 0.041765285724960583835;0.029419437201196954601 -0.26848912324761470272 0.0078603114037377550677 -0.10957202590825940169 0.28699663291823623856 0.29341850385639262067 -0.011202774008197188133 -0.035950303092732581456 0.13898384602551516753 0.29493817817005224535 0.074029284993179997332 0.13184983674531886022 -0.044103072209075368237 -0.39584848586879273213 0.067053464625179165504 0.49605422098821960741 0.17575681562537437408 -0.074938615098581726204 0.045002260953250342035 -0.3665970550621950319 0.22396142166585533695 0.20177795434622475268 -0.077948428561144117444 0.26045633670348905531 -0.11426225332156113301 -0.078015658284420183466 -0.078771992280039546119 0.024071104370264818223 -0.13789986208937135559 0.056678347982820086182 -0.027566463630808037133 -0.12337792006972897463 0.48250354279018459192 0.065884313172206374065 -0.34137442480488505714 0.045413701602937658897 -0.48319655017424339993 0.10596147075006184801 -0.23208569609898813124;-0.26415329011097149481 -0.37182167618490713501 0.4930499601227938955 -0.60943755876551286566 0.18049842191616266573 0.65584851841263636096 0.17879843987399132721 0.086919511864231135956 0.029807958650037737897 0.36214789535519631425 -0.41987154496678291693 0.44381396742743078887 -0.062282499110178010659 0.20665791872085681469 -0.32493800034251540954 0.10736517815969337519 0.63117138699358776854 0.15787079395870751153 -0.76116637258323405213 -0.40365482779117095591 0.44888187558469644367 -0.11842154520992068112 -0.34547756898983356111 0.41111048276565698156 -0.11854381155650692281 -0.057528461755384910359 -0.24404447702065731884 0.12971364856103312357 -0.041257107275061911944 -0.43816325367323571971 -0.12626839923210511629 0.49705082552088902803 0.33475854799841880949 -0.31665072477331057677 0.038917369975701707197 0.10114926470942481318 -0.16409505477253302774 0.29569743748994054 0.037891526921311396991;-0.1519792699477165443 0.22254221118779010657 0.20953670430709053774 -0.21781999052190526012 -0.15233024136502251733 0.057707256357102484912 -0.31145702954692372488 0.093750325144571725056 0.31760800262651006642 0.016720165791833874885 -0.01483185425821084355 -0.32854585591362811536 0.40797733418983184173 0.099492322033548560856 0.3348692959670913627 0.42514051318449891381 0.012042018478014310245 0.48429686538381805372 -0.36830770593864980977 -0.30344549338486015433 0.088443925924029609398 -0.38468848227909868687 0.32546727405841147096 0.057295610697266852185 0.24953427638005667988 0.35176461036754347322 -0.60034303737434824288 -0.10027989620396023096 -0.18088607546301430085 0.30600482678174972806 -0.13240529019351326978 0.36026878977384019231 0.28252907869913090888 -0.2907169589247649566 0.35595933262679091413 -0.12456670733185677691 0.2635689446454805851 0.0090757197238411115026 -0.14221682354016354499;0.12668910091395699236 0.29046093279153051281 0.27620232636011210481 -0.14653217290700773501 0.3371515457468753918 0.16819073534028641803 0.44931314646682357639 0.41477415643927839639 0.020378231196185640772 -0.57625806246654209808 0.27496886151841976043 -0.087618544735513781418 0.071195545058308815078 0.40379701800903011755 -0.0035790317242957152971 -0.22080235216357926853 -0.21120426405191922159 0.26513735036829816361 -0.26824758683467325726 -0.073900429964966332652 -0.23213896386933763338 -0.15200429278726901305 0.27914293759028580011 -0.14623228330144186216 0.043095094194048957914 0.17710309649302966029 -0.36827645828927429994 -0.48868465053937015785 -0.081311157158981434145 0.13302974293930028282 0.17417600982667671983 0.1039282424712539149 -0.14544511454644232229 0.58438126519967892314 0.26985867754778697369 -0.69619625528065975928 -0.20786070053058891549 0.20677467636063015521 -0.28738885807042924281;-0.12557512903301593088 0.066197171898877055218 -0.40691398009879997666 -0.1354800184228140969 -0.32966164933367297918 0.5916594439462700139 0.28545004125933703953 -0.0008589529640790453946 -0.49941375915836172528 -0.2869425372617790404 -0.33323052440884964875 -0.092640498097755402673 0.065033291067440560096 0.53665012277729418066 -0.09727056927292464239 -0.56103409967861439522 0.25809375768719744482 0.53290044132894054396 -0.062327033057662087345 -0.13139500303219070476 -0.37983633130071220441 -0.11116234956893837615 0.67862421500157821264 0.37470775363463765251 -0.30161237686429098748 -0.19400024888738903739 -0.28842489986655633905 0.024766109772496193442 -0.015603104595233736884 -0.0053964119667072197456 -0.50985232960759252485 0.0067103241385818371278 0.35730428625712490343 0.22611724823458287381 -0.082873790869672281367 -0.043234886656645349357 -0.40245700521347460565 0.13335079209321504257 0.19792436303428850852;-0.14662352081337384768 0.44296139800929457131 -0.42644298656379064916 -0.13590126476016531343 0.080795128538319258005 0.30371629408572958786 0.28812010475188803982 0.055340016707094402681 -0.48325993750028312101 0.39776741795530218271 0.24157678676498109405 0.050938084293017424353 0.45917208817167243229 0.66369662038942855986 0.19845716697531282091 0.29464328454493315945 -0.17824997466482309094 -0.0038444123773922062037 -0.32855104705439064361 -0.044968592979867917647 -0.099458361335696507388 0.66028864702318124102 0.035687030880990573689 0.47373971879245635463 0.057899720536691789974 0.1338797419563303448 0.046040873360553513649 -0.15805743252314619074 0.054124453805670887097 -0.17594340621962806237 -0.17340977404580168453 0.060156163814611349205 0.00010991704504067015269 0.024870110134358355131 -0.37407460695419741947 -0.37955263692876645143 -0.21549796464124038042 -0.13043638849106214961 0.10881692682567092878;0.036797886972531064498 -0.22852769222047852882 0.12701603015319681833 -0.28923650236377762557 0.1162369381653938355 0.018463898909973356505 -0.015309382007430559491 0.12712356006061478753 -0.081376573189294920674 -0.24443172169779792124 0.069836734341358897016 -0.000664601240721823458 0.19650573849973654306 0.14325954310507529876 -0.043890832238130020326 -0.094617225709488841923 0.3361191183063219623 -0.073090636059631217125 -0.1819473915191026081 0.26706763274097627958 -0.089549512235199718591 -0.13009716585996405902 0.24640673206157487352 -0.22252202692360323333 -0.079748098403199366158 -0.32722057383832686694 0.15836128488860468089 0.041020268928397433938 0.27353171858727481913 -0.090076471654895434726 0.064715173171204384839 0.10958757592803630709 -0.22309758695727033295 -0.38730217185198034802 -0.16928138167865003361 -0.038977890629852629534 0.074226031727811447869 0.2697683625470874702 0.30936417000366894792;0.24113559946643617349 0.26795149224755970829 0.23304874178121126604 0.019013300224746936679 0.19116487417922445324 -0.15423323569823596535 0.43064551153242275339 -0.22033140254935443259 0.06126800620637504885 -0.3932678798802246023 0.099473790499209652216 -0.084732617285538436303 -0.045209519528314548453 0.26408908583206547327 -0.047247852493486952596 -0.50483431307393500376 0.07032764606469281421 -0.23689351135443481589 -0.037375770700900694254 -0.091329593126625530086 0.020564215993066174704 0.54551705294796137835 0.19242988850439915471 0.21143534446187561837 0.10201494716498635262 0.28321489545786754372 0.12415437827593173159 0.36129396139498204388 0.18389704922120678199 0.051343237336506655777 -0.17946777411105588329 0.18438050278861370379 0.54876309171097303885 -0.12550170386780404308 -0.40715963607379296318 0.13279133233068626807 0.12690590861224435026 -0.3085563512302767486 -0.063640293939778033727;-0.12128377076498390863 -0.2471121271512133899 -0.27013506088361216584 -0.11131011082781072652 0.45663507769645877987 0.03173480015431636575 0.53420827386890834543 -0.17124490502801248404 -0.1319681444821450278 0.11534912610224805352 0.030659290984536284597 0.28492758323940947651 0.42975145188212171554 -0.045338508236232130666 0.18010815252254219754 0.083357767400751542342 0.1741674191804465921 0.15607852558684184863 0.33463305545688648568 0.25704297176518209334 0.39763068285147817882 -0.074691857551108659097 0.27823438900690078412 -0.13871223769452670216 -0.10340354168513918309 -0.47342830711310163183 -0.16021217274667118313 -0.18554880741231941088 -0.15834051341019886316 -0.30325283216602405556 0.065333662111314361187 -0.34272104358444677175 0.033308121287159604684 -0.29004383311531123368 -0.17290143332937199516 -0.21499067699891521999 0.073852136543524030121 -0.28436585665630359498 0.31531270400002564536;0.50393260241202864069 0.86218840924704087669 0.78222739385449069349 0.71191043086338379187 -0.15967208541114152887 -0.28360003445679604628 0.37549832418657530519 0.47896788552346158951 0.37098322604533223723 0.55481895975927730813 0.26575310986736311314 -0.033526157956833807505 -0.13124389253011953249 0.03912587545671740441 -0.10257674150461147666 0.013289708961458460493 0.1499865223568375705 0.46950072503064665952 -0.033524179483475052832 -0.3458971843181937178 -0.83985765314693094918 0.0026801146483676416277 0.55356370450617664591 0.057612493365676219204 0.16243035352132398352 -0.34117697293393978164 0.044955547491341271704 -0.039700510414756903788 -0.049824752293048737983 -0.29430160074499034373 -0.49288880989591837833 0.51343008814389112793 0.16039758457949182535 0.42096532660290109096 0.017640990528774762314 -0.39168271245656643975 -0.033679427897543204318 -0.076958619017284943253 0.14748494742632456411;-0.44838167860391131558 0.31263495652386574797 0.31569231056818169989 0.33871405297119328015 0.37015093684149841247 -0.17953207342054341988 -0.032320340120963707287 -0.067491270586594417913 0.31915214945080766507 0.090371023877191869467 0.074050279017076198196 0.20068841227128964011 -0.18279908774148767581 0.13483230179452801445 -0.12011437317831999416 -0.023545162271504611884 -0.070268270923803541339 -0.27964226778968281906 0.004325834043572306109 0.32399040904749143444 0.067763696490345512458 -0.38777470904272459684 -0.14811468226899712763 -0.29753210908669996959 -0.31735083459370189152 0.14304583768721682024 0.01784496837236206751 0.13179725488146026846 -0.11425557583102609327 -0.02359349553141739525 0.26598572944593079637 -0.035289180019594898474 0.020397479188397207167 -0.031705645969605456003 0.02104425473231071389 -0.019474189400651618909 0.043292050865720160813 -0.27497755246736760304 -0.21457658805222754039;0.25892175628459002112 -0.21362402867300123166 0.21976001381085447095 0.74316766270168888031 -0.16341732130842745452 -0.087543997445751323139 0.098778212227811412749 0.12972564737251945921 -0.58036993811224502071 0.093610544901063325041 0.059474192911102383152 -0.48626895105494227778 0.15688953468971728045 -0.60682418980257535335 -0.030042470476166184545 0.027339430718207019533 0.1133775718496730367 0.39597739695154415829 -0.10499935143522286241 0.35636072861761247665 -0.53070753753557720067 0.16521449955842551494 -0.61484562654668961645 0.37012848889619043291 0.20346579274709764018 0.23634289555489323975 0.42287876431469773042 0.070361734497161723678 0.39971721036303459185 0.40463691657422201642 0.27532871727734314904 0.082114287390033569025 -0.015885751686936157301 0.34686740920228814611 -0.29160708603879287315 0.0588714768752929829 -0.36328958382069814759 -0.70430862838504482148 -0.057315746248486690306;0.20725293119950147225 -0.11056190222637407583 0.08824933320615720167 -0.11225850270777934514 -0.14274675543904952191 0.039705434829692382026 0.11380708815178949833 0.15097322797576606668 -0.33435141900996706577 -0.1697147797907751221 0.0081330374072792147727 0.022651843836310608937 0.25492977877031497425 -0.026644251326795570511 0.027046006545567109758 0.19076005806016194111 -0.18214312797669177102 0.053030275842227400651 0.26739822190884743325 -0.048442339669078196551 0.20098543888195846696 0.22330749917736583687 0.035676423987641620039 -0.47294862236056572913 -0.021498495785995129503 -0.28664824399970217916 0.28470961831958102595 -0.052076952036461406081 -0.20081946204406056489 -0.1340659385177714602 -0.2947204903526489117 -0.3999655781047751768 0.27105873062820112773 -0.40048195136259417959 -0.029353123808007922785 -0.36460153059598016112 0.18381815156796790789 0.27015225212655852305 0.26910591484258439277;-0.12188677932114036495 0.14411744432198647647 0.21905346811642917304 -0.47946703066982110375 -0.33248149311164432174 0.28638417119507431075 -0.26894173800420639875 -0.40212562486094416414 0.53323252556555655879 -0.065103952858375696566 -0.12892866052550067124 0.14970887597056678486 -0.12451709884481632074 -0.400022902513371581 -0.011917692721518831356 -0.67202713916377110337 -0.29979498896238265804 0.032835228165517982291 -0.1781456656421189777 -0.41225669521906482817 0.34176163276817900227 -0.11594465792030116125 0.1028719549687800161 0.021620027184591491393 -0.4541258485317464233 0.055578982225856859989 0.31563012241839816241 0.04122437532500838886 0.1846449326149440795 0.036730059378603394094 -0.31394314750764429345 0.12848708528214838887 0.50726971416074051469 -0.1409662434942516307 -0.0082680946706864405504 -0.30689312304669758014 0.028234441014401232689 0.18461891451311607248 0.010386518024791020764;0.17902510783687522467 -0.58293903552141901336 0.11024250525799383915 -0.36979790650858396228 -0.36406431482725498672 -0.068258220451176507271 -0.49715003828068515812 0.008992176177396943651 0.63371873322573546439 0.093943478039426486781 0.27279515553464434019 -0.038348196608974913224 -0.14561345193114294538 0.071227482857061305555 -0.020109920061064767705 0.1417580722035735874 -0.17221261794064066097 0.11250930327072965198 -0.048685544264941177373 -0.14059066015327176258 0.49846918741915619 -0.32388551100995932597 0.080249684568289042508 -0.14275831346858819382 0.10203183595001960593 0.48694081069558337038 0.01132097374282169111 -0.10532145669163162083 -0.15918529095418487707 -0.019554383724946250434 0.22378644242085099503 0.37860444160415468451 0.18048284419364771236 -0.21838145191546465274 -0.025382087881425874354 0.16623101067820392207 0.14321265519658604726 0.037171350277129699968 -0.3240438479036084618;-0.023231134257650755404 0.70047708816193887671 -0.16454976873168503104 0.0029021678421951926929 -0.14131363646556907576 0.24669028048345056914 -0.1647118401329131232 0.11220675552053761825 0.38218312868676518335 -0.20210414088109893149 -0.15388022365240605627 0.1333010666199204719 0.26471083573986525783 0.019908327881822798777 0.14868850544980324879 -0.14424461642919875204 -0.0011264042588118479415 0.24736616767591201871 -0.22966513462342305618 0.018156079574742252369 -0.048149869379006379755 -0.14943056668322418634 0.007939090819017653386 0.078762376864845343172 0.18876499925063708329 0.057425618057402025296 -0.11475818259613335126 0.10164872320461687538 0.072659749692243466579 0.27763862479962081453 -0.24150116196076854003 0.097984657476538214449 0.040280210927621677708 0.034550532209817866325 -0.16747106922119023298 0.086491815841834934764 -0.069122039050491870804 -0.00047138482637249304319 0.079160987177331984532;-0.14843691980389872587 0.32326692499980269613 0.34132833765942210968 0.880577881101567983 0.025203388506699772598 -0.17946336628528275492 -0.4621410967222907562 -0.80662816735480502572 -0.13950541528580706618 0.25516573752253279839 0.2666729924813724395 -0.13857917100481259576 -0.075552337626893145694 -0.069773770491287218087 0.016393968363648099562 -0.25552533014570139036 -0.067180511165401440854 -0.31981912971605780394 -0.12516227543162586344 0.28866755540652910828 0.088543323398740991781 -0.26804998560801773788 -0.061844267406356165373 -0.43711199053527183267 -0.1296589027380743997 0.17772789416376710836 0.20685031701631168 0.29326062004475361711 0.51699856741950600547 0.13467892950726803591 -0.10059295648037477888 0.31619106934828233868 -0.25591165341797139643 0.11614625526797744959 0.22907610212272319639 -0.12956380854005086767 0.14839254765454482077 -0.0090538555892913583079 -0.10152739058608373224;0.37588207545019397537 0.43728792038577612988 0.52527880515327918243 0.77506730202993789902 0.50019497750205532682 -0.31781701186838251516 -0.061622597801423192876 -0.32422993752473489026 -0.14491945529318425723 0.066639283472457580548 0.26040478604447458988 -0.26080277021294545614 -0.16605555362375779005 -0.16285461802959069755 -0.031185531629247094376 -0.012529920210948879838 -0.22243017800896913716 0.091344844884682391273 0.32148695378065511585 -0.0064170069205505527246 0.22667963248247191554 -0.23786941155358701239 0.013481252794195066474 -0.019929385306775626585 0.070410381534940696957 -0.045205938935403075507 0.2164269794464997454 -0.10258408558329734639 0.21468827716205493572 0.35808825661299426013 0.10228050009639805262 0.12470865628851497686 0.1619641301023754254 0.033893419368649042867 0.24167733788291306807 0.080391087871431440859 -0.037638833939867680223 -0.28875705165826737186 0.067350394199780783122;-0.093706598486331060816 -0.10445843631474348301 -0.42544730349328380159 -0.18077673465282995124 -0.16555853227731986976 -0.46785949369728618841 -0.12178999679323131156 0.094947580995755176403 0.012071299856717836174 0.082646875521643778373 0.091378905652226324885 0.074667693915107580249 0.066458924009995340443 0.20811534696805175648 -0.36691856863363303543 0.19457839699709658654 0.01507401828302564438 -0.34846798804091855262 0.45890809707934782091 -0.2156087629081646917 -0.2691096738087674356 -0.18600599878857160263 -0.38833586077466264452 -0.29683532722210442811 -0.13085442420382170647 0.063615835059944100816 0.047379400387480105628 0.10215423396774334086 -0.036381882406392930529 -0.0084040584138610381626 0.058574093036087189479 0.078090155939792710305 0.032878897745453841694 0.25540054099359227324 -0.0013077702919185064945 0.40406964053450211694 0.0068087857273160315441 -0.013282792575218027586 0.12699570649649746801;0.75203113149758882283 -0.092350569029344325989 0.28802779071593503923 0.56099913997978312352 0.16114390755216029261 0.42412318011257282846 -0.24713960908157431295 -0.018137877053620528323 0.20716849909228440829 -0.012550079593365553315 0.30904246992026918051 -0.13982160078360864053 0.15260317368483988787 0.032179256807904274562 -0.30357035611730892599 0.24563282115010748319 -0.44152361002220463781 -0.06666147640552741449 0.40007045194513846109 0.96953949441334530412 0.085898248235771315628 -0.032916173058793740669 -0.45590453315474865903 0.10548362986283532639 -0.13140136968615323543 0.47054920234316033323 0.1514718889313564909 0.10652869985976132217 -0.21157640748036327105 0.21038756224544225004 0.036491764407325759378 -0.91392105241872634291 0.30473777539657537217 -0.10813639974055075377 -0.13652784582360114052 -0.064680155221803953269 -0.51888327585579663292 -0.6564345437377315795 -0.5378372663483558247;-0.16313806557413973453 0.15308094061429849964 -0.60440460659811767741 -0.59500214013792518397 0.43170326506952783063 0.039691095776327761646 -0.0367181583456735669 -0.51214674473489774087 0.028625897922876255425 0.39770398458516859064 -0.28304489121258274986 -0.056066527156660626863 0.30982621322733339131 0.16792870829452369308 -0.21915366202850977695 -0.10393665947665509108 0.41101692027799668905 -0.25079747186164091932 0.13446879899674521464 -0.28802240861939809591 0.53284907712372209243 -0.25892157850276376063 -0.27916898426725389459 -0.016590999421643413264 0.23295836050539131534 -0.21137971308039490981 -0.23200661506984981974 0.36531909434264192571 0.054438700112571958289 0.14258495659293649038 -0.43492231719736240692 -0.48848342419688572935 0.078125022161673940424 -0.12462505320814810938 0.34115205654996860751 0.36273399418219598456 0.067547151546656650223 -0.09263687363849461287 -0.084803506924806482115;0.02052992890247651997 -0.21029198310031704811 0.073656929389510045203 -0.22304139388635971231 0.32489211546822760468 0.024036639616673866754 -0.087903651335470900374 -0.23641029863732976324 0.17199703704113294966 0.30872105987552905804 -0.011035402639188500451 -0.26827920170133412459 0.25035665688417296781 -0.14621339051727499925 0.034074638956675014356 -0.060774482988017755614 0.41249601055737239452 -0.21246550799278576815 0.38064464226366095945 0.10165309169255522248 -0.19401402760937849767 -0.19617058012181229354 -0.039575331508190411678 0.18714836480348784331 -0.033480498796617505497 0.10060787705496096467 -0.16678056500652371774 0.045944822815858543663 -0.079587509337939524312 -0.017390537293584962947 -0.0036794549740247475475 -0.086795780490181301259 0.084106866484470271805 0.14578817161455590035 0.27543018001678859497 0.29006182106678191079 -0.14743219373117036342 -0.099376147262600134091 -0.22841811752164706273;0.28547065355661427333 0.24872420424989280519 -0.11019715758251334703 -0.14868936521791847882 0.070725157965064872068 0.52359319569659368288 0.40570133412579811871 -0.25143205390033251945 -0.12184002882737163254 0.10797068721942398861 -0.17231425150645046651 0.25751820055028590284 -0.32728074191601724818 -0.034699686084743511238 -0.040026597413516142032 0.14694621718318992554 0.37937071759946439098 0.2058913375800877632 0.22183567564240605496 0.23116466134378038655 0.067635771312546069667 -0.044272463381840730656 -0.1833647300928347712 0.36510413467838276347 0.018569657511749684126 -0.36412737245726251034 0.37255186817684099454 -0.51632045307503937615 0.19573316986042768595 -0.10251840216882650292 0.3236247459885666089 -0.34935367598167171854 -0.4722356740583013579 -0.064988097365029043329 0.72062382602876484672 -0.21322924106018689705 0.24693524425777332865 0.097357585338104055128 0.49747621417852960768;-0.66238351231323266965 0.059821971518806062174 0.034618204018455417392 -0.45464712998483214346 0.012006844118110808484 0.042608584503243687736 0.067756892711063262946 0.020134736511671472853 0.053158402451195706229 -0.40294504767090905117 -0.21622538459076023898 0.031248911470705763305 0.099533854113774994365 0.25457154102333628964 -0.0024323293372859951418 -0.42603173767817875683 -0.14934047270120409667 -0.10353055631391747116 -0.05382126034324077879 0.30848758494226252713 0.26427789271026785878 0.13369623921559936619 -0.20151348199320803789 0.14337739395729362513 -0.036965689076796315327 0.21423550389654910653 -0.49525580272482511157 0.17622599814546377472 0.21862957591512072186 0.051328949526735626052 -0.028069865020314929693 -0.080309886820948417352 0.14512873403992171406 -0.097172114215149318905 -0.036008438372137886729 0.13969828787337157383 0.2188017444578877202 -0.29094697900962140924 -0.31032448406647383798;-0.41076942381407449689 0.57286370024552646374 -0.43396986870853354601 0.65126550210218714376 -0.18362249363488897247 -0.51133740110773562293 0.16276553702085044817 0.44687677271038001026 -0.49990069019579208565 0.44215518591962732486 -0.47372160119394096656 0.70385116542443093568 -0.34986561243244701513 0.14394570523388647287 -0.10313408860433009862 0.15854559794387987348 -0.39231697873237436625 -0.15945516292327024943 0.3571418192282754811 0.007221162123709233549 -0.23158120819549499192 0.18810096171780266161 -0.45091401910263206876 0.29331838233746537759 -0.32445310467859400649 0.28805987288456308404 -0.35336229873025920556 -0.054692014139276552698 -0.21024203796530752109 0.098528899199591124525 -0.077223294602308714674 0.015945473612497623739 -0.12718291655097940795 0.088228899757697987205 -0.13752307129938576291 0.27436037330877049989 -0.27660944839599355127 0.36939259092750248437 0.073244913163542257895];

% Layer 2
b2 = [0.0034073693761037093103;-0.61316977531434890825;-0.15196194847453495247;-0.69777063137506822876;-0.84114080872984076098;0.063959116358899392729;-0.60514628542712112225;-0.60058696869832783882;0.59667519696959181452;-0.40272391203861906961;-1.3752117877935594592;-0.77295209140295950689;0.35656880321487466334;0.22865865359117670819];
